digraph Tree {
node [shape=box, style="filled, rounded", color="black", fontname=helvetica] ;
edge [fontname=helvetica] ;
0 [label="p5 <= 66.5\ngini = 0.5\nsamples = 358038\nvalue = [279840, 286927]\nclass = inactive", fillcolor="#399de506"] ;
1 [label="p2 <= 101.5\ngini = 0.41\nsamples = 245463\nvalue = [109787, 278824]\nclass = inactive", fillcolor="#399de59b"] ;
0 -> 1 [labeldistance=2.5, labelangle=45, headlabel="True"] ;
2 [label="idle <= 20.06\ngini = 0.48\nsamples = 149124\nvalue = [93942, 142231]\nclass = inactive", fillcolor="#399de557"] ;
1 -> 2 ;
3 [label="p2 <= 26.0\ngini = 0.14\nsamples = 43467\nvalue = [63839, 5173]\nclass = active", fillcolor="#e58139ea"] ;
2 -> 3 ;
4 [label="p5 <= 56.0\ngini = 0.3\nsamples = 3410\nvalue = [4403, 989]\nclass = active", fillcolor="#e58139c6"] ;
3 -> 4 ;
5 [label="idle <= 0.29\ngini = 0.49\nsamples = 368\nvalue = [326, 256]\nclass = active", fillcolor="#e5813937"] ;
4 -> 5 ;
6 [label="mean <= 1.57\ngini = 0.45\nsamples = 218\nvalue = [223, 112]\nclass = active", fillcolor="#e581397f"] ;
5 -> 6 ;
7 [label="mean <= 0.0\ngini = 0.41\nsamples = 176\nvalue = [185, 75]\nclass = active", fillcolor="#e5813998"] ;
6 -> 7 ;
8 [label="pro <= 0.5\ngini = 0.48\nsamples = 77\nvalue = [69, 45]\nclass = active", fillcolor="#e5813959"] ;
7 -> 8 ;
9 [label="(...)", fillcolor="#C0C0C0"] ;
8 -> 9 ;
78 [label="(...)", fillcolor="#C0C0C0"] ;
8 -> 78 ;
79 [label="p4 <= 56.0\ngini = 0.33\nsamples = 99\nvalue = [116, 30]\nclass = active", fillcolor="#e58139bd"] ;
7 -> 79 ;
80 [label="(...)", fillcolor="#C0C0C0"] ;
79 -> 80 ;
99 [label="(...)", fillcolor="#C0C0C0"] ;
79 -> 99 ;
122 [label="p5 <= 53.5\ngini = 0.5\nsamples = 42\nvalue = [38, 37]\nclass = active", fillcolor="#e5813907"] ;
6 -> 122 ;
123 [label="p4 <= 57.0\ngini = 0.19\nsamples = 15\nvalue = [25, 3]\nclass = active", fillcolor="#e58139e0"] ;
122 -> 123 ;
124 [label="(...)", fillcolor="#C0C0C0"] ;
123 -> 124 ;
127 [label="(...)", fillcolor="#C0C0C0"] ;
123 -> 127 ;
128 [label="p4 <= 507.5\ngini = 0.4\nsamples = 27\nvalue = [13, 34]\nclass = inactive", fillcolor="#399de59e"] ;
122 -> 128 ;
129 [label="(...)", fillcolor="#C0C0C0"] ;
128 -> 129 ;
152 [label="(...)", fillcolor="#C0C0C0"] ;
128 -> 152 ;
153 [label="pro <= 0.5\ngini = 0.49\nsamples = 150\nvalue = [103, 144]\nclass = inactive", fillcolor="#399de549"] ;
5 -> 153 ;
154 [label="std <= 17.93\ngini = 0.47\nsamples = 141\nvalue = [88, 144]\nclass = inactive", fillcolor="#399de563"] ;
153 -> 154 ;
155 [label="std <= 0.01\ngini = 0.45\nsamples = 129\nvalue = [72, 140]\nclass = inactive", fillcolor="#399de57c"] ;
154 -> 155 ;
156 [label="(...)", fillcolor="#C0C0C0"] ;
155 -> 156 ;
203 [label="(...)", fillcolor="#C0C0C0"] ;
155 -> 203 ;
218 [label="mean <= 59.83\ngini = 0.32\nsamples = 12\nvalue = [16, 4]\nclass = active", fillcolor="#e58139bf"] ;
154 -> 218 ;
219 [label="(...)", fillcolor="#C0C0C0"] ;
218 -> 219 ;
220 [label="(...)", fillcolor="#C0C0C0"] ;
218 -> 220 ;
221 [label="gini = 0.0\nsamples = 9\nvalue = [15, 0]\nclass = active", fillcolor="#e58139ff"] ;
153 -> 221 ;
222 [label="mean <= 0.24\ngini = 0.26\nsamples = 3042\nvalue = [4077, 733]\nclass = active", fillcolor="#e58139d1"] ;
4 -> 222 ;
223 [label="p5 <= 64.5\ngini = 0.2\nsamples = 2065\nvalue = [2873, 364]\nclass = active", fillcolor="#e58139df"] ;
222 -> 223 ;
224 [label="idle <= 20.01\ngini = 0.1\nsamples = 851\nvalue = [1301, 69]\nclass = active", fillcolor="#e58139f1"] ;
223 -> 224 ;
225 [label="p5 <= 60.5\ngini = 0.09\nsamples = 842\nvalue = [1292, 64]\nclass = active", fillcolor="#e58139f2"] ;
224 -> 225 ;
226 [label="(...)", fillcolor="#C0C0C0"] ;
225 -> 226 ;
345 [label="(...)", fillcolor="#C0C0C0"] ;
225 -> 345 ;
380 [label="pro <= 0.5\ngini = 0.46\nsamples = 9\nvalue = [9, 5]\nclass = active", fillcolor="#e5813971"] ;
224 -> 380 ;
381 [label="(...)", fillcolor="#C0C0C0"] ;
380 -> 381 ;
386 [label="(...)", fillcolor="#C0C0C0"] ;
380 -> 386 ;
387 [label="p4 <= 67.0\ngini = 0.27\nsamples = 1214\nvalue = [1572, 295]\nclass = active", fillcolor="#e58139cf"] ;
223 -> 387 ;
388 [label="p4 <= 32.5\ngini = 0.41\nsamples = 645\nvalue = [706, 291]\nclass = active", fillcolor="#e5813996"] ;
387 -> 388 ;
389 [label="(...)", fillcolor="#C0C0C0"] ;
388 -> 389 ;
652 [label="(...)", fillcolor="#C0C0C0"] ;
388 -> 652 ;
709 [label="p4 <= 1106.0\ngini = 0.01\nsamples = 569\nvalue = [866, 4]\nclass = active", fillcolor="#e58139fe"] ;
387 -> 709 ;
710 [label="(...)", fillcolor="#C0C0C0"] ;
709 -> 710 ;
711 [label="(...)", fillcolor="#C0C0C0"] ;
709 -> 711 ;
716 [label="p4 <= 66.5\ngini = 0.36\nsamples = 977\nvalue = [1204, 369]\nclass = active", fillcolor="#e58139b1"] ;
222 -> 716 ;
717 [label="p5 <= 64.5\ngini = 0.46\nsamples = 607\nvalue = [621, 352]\nclass = active", fillcolor="#e581396e"] ;
716 -> 717 ;
718 [label="p5 <= 60.5\ngini = 0.21\nsamples = 228\nvalue = [324, 44]\nclass = active", fillcolor="#e58139dc"] ;
717 -> 718 ;
719 [label="(...)", fillcolor="#C0C0C0"] ;
718 -> 719 ;
768 [label="(...)", fillcolor="#C0C0C0"] ;
718 -> 768 ;
785 [label="std <= 0.26\ngini = 0.5\nsamples = 379\nvalue = [297, 308]\nclass = inactive", fillcolor="#399de509"] ;
717 -> 785 ;
786 [label="(...)", fillcolor="#C0C0C0"] ;
785 -> 786 ;
943 [label="(...)", fillcolor="#C0C0C0"] ;
785 -> 943 ;
1012 [label="p5 <= 60.5\ngini = 0.06\nsamples = 370\nvalue = [583, 17]\nclass = active", fillcolor="#e58139f8"] ;
716 -> 1012 ;
1013 [label="mean <= 45.65\ngini = 0.31\nsamples = 20\nvalue = [29, 7]\nclass = active", fillcolor="#e58139c1"] ;
1012 -> 1013 ;
1014 [label="(...)", fillcolor="#C0C0C0"] ;
1013 -> 1014 ;
1015 [label="(...)", fillcolor="#C0C0C0"] ;
1013 -> 1015 ;
1016 [label="p4 <= 91.0\ngini = 0.03\nsamples = 350\nvalue = [554, 10]\nclass = active", fillcolor="#e58139fa"] ;
1012 -> 1016 ;
1017 [label="(...)", fillcolor="#C0C0C0"] ;
1016 -> 1017 ;
1028 [label="(...)", fillcolor="#C0C0C0"] ;
1016 -> 1028 ;
1043 [label="idle <= 1.13\ngini = 0.12\nsamples = 40057\nvalue = [59436, 4184]\nclass = active", fillcolor="#e58139ed"] ;
3 -> 1043 ;
1044 [label="mean <= 4.77\ngini = 0.09\nsamples = 35971\nvalue = [54360, 2774]\nclass = active", fillcolor="#e58139f2"] ;
1043 -> 1044 ;
1045 [label="std <= 2.97\ngini = 0.06\nsamples = 33236\nvalue = [51169, 1615]\nclass = active", fillcolor="#e58139f7"] ;
1044 -> 1045 ;
1046 [label="p2 <= 77.5\ngini = 0.05\nsamples = 32332\nvalue = [50056, 1339]\nclass = active", fillcolor="#e58139f8"] ;
1045 -> 1046 ;
1047 [label="p2 <= 75.5\ngini = 0.06\nsamples = 28091\nvalue = [43364, 1269]\nclass = active", fillcolor="#e58139f8"] ;
1046 -> 1047 ;
1048 [label="(...)", fillcolor="#C0C0C0"] ;
1047 -> 1048 ;
2409 [label="(...)", fillcolor="#C0C0C0"] ;
1047 -> 2409 ;
2418 [label="p1 <= 26.5\ngini = 0.02\nsamples = 4241\nvalue = [6692, 70]\nclass = active", fillcolor="#e58139fc"] ;
1046 -> 2418 ;
2419 [label="(...)", fillcolor="#C0C0C0"] ;
2418 -> 2419 ;
2514 [label="(...)", fillcolor="#C0C0C0"] ;
2418 -> 2514 ;
2575 [label="idle <= 0.0\ngini = 0.32\nsamples = 904\nvalue = [1113, 276]\nclass = active", fillcolor="#e58139c0"] ;
1045 -> 2575 ;
2576 [label="std <= 4.88\ngini = 0.46\nsamples = 54\nvalue = [29, 52]\nclass = inactive", fillcolor="#399de571"] ;
2575 -> 2576 ;
2577 [label="(...)", fillcolor="#C0C0C0"] ;
2576 -> 2577 ;
2592 [label="(...)", fillcolor="#C0C0C0"] ;
2576 -> 2592 ;
2607 [label="std <= 4.51\ngini = 0.28\nsamples = 850\nvalue = [1084, 224]\nclass = active", fillcolor="#e58139ca"] ;
2575 -> 2607 ;
2608 [label="(...)", fillcolor="#C0C0C0"] ;
2607 -> 2608 ;
2721 [label="(...)", fillcolor="#C0C0C0"] ;
2607 -> 2721 ;
2896 [label="p5 <= 55.5\ngini = 0.39\nsamples = 2735\nvalue = [3191, 1159]\nclass = active", fillcolor="#e58139a2"] ;
1044 -> 2896 ;
2897 [label="std <= 24.13\ngini = 0.5\nsamples = 159\nvalue = [128, 117]\nclass = active", fillcolor="#e5813916"] ;
2896 -> 2897 ;
2898 [label="p3 <= 244.0\ngini = 0.47\nsamples = 118\nvalue = [113, 71]\nclass = active", fillcolor="#e581395f"] ;
2897 -> 2898 ;
2899 [label="(...)", fillcolor="#C0C0C0"] ;
2898 -> 2899 ;
2950 [label="(...)", fillcolor="#C0C0C0"] ;
2898 -> 2950 ;
2959 [label="mean <= 214.85\ngini = 0.37\nsamples = 41\nvalue = [15, 46]\nclass = inactive", fillcolor="#399de5ac"] ;
2897 -> 2959 ;
2960 [label="(...)", fillcolor="#C0C0C0"] ;
2959 -> 2960 ;
2975 [label="(...)", fillcolor="#C0C0C0"] ;
2959 -> 2975 ;
2976 [label="std <= 6.9\ngini = 0.38\nsamples = 2576\nvalue = [3063, 1042]\nclass = active", fillcolor="#e58139a8"] ;
2896 -> 2976 ;
2977 [label="std <= 0.01\ngini = 0.18\nsamples = 587\nvalue = [827, 94]\nclass = active", fillcolor="#e58139e2"] ;
2976 -> 2977 ;
2978 [label="(...)", fillcolor="#C0C0C0"] ;
2977 -> 2978 ;
2987 [label="(...)", fillcolor="#C0C0C0"] ;
2977 -> 2987 ;
3114 [label="p4 <= 67.0\ngini = 0.42\nsamples = 1989\nvalue = [2236, 948]\nclass = active", fillcolor="#e5813993"] ;
2976 -> 3114 ;
3115 [label="(...)", fillcolor="#C0C0C0"] ;
3114 -> 3115 ;
3566 [label="(...)", fillcolor="#C0C0C0"] ;
3114 -> 3566 ;
3711 [label="std <= 0.03\ngini = 0.34\nsamples = 4086\nvalue = [5076, 1410]\nclass = active", fillcolor="#e58139b8"] ;
1043 -> 3711 ;
3712 [label="std <= 0.02\ngini = 0.5\nsamples = 555\nvalue = [481, 403]\nclass = active", fillcolor="#e5813929"] ;
3711 -> 3712 ;
3713 [label="p2 <= 71.0\ngini = 0.47\nsamples = 443\nvalue = [438, 258]\nclass = active", fillcolor="#e5813969"] ;
3712 -> 3713 ;
3714 [label="p5 <= 61.0\ngini = 0.42\nsamples = 352\nvalue = [388, 166]\nclass = active", fillcolor="#e5813992"] ;
3713 -> 3714 ;
3715 [label="(...)", fillcolor="#C0C0C0"] ;
3714 -> 3715 ;
3746 [label="(...)", fillcolor="#C0C0C0"] ;
3714 -> 3746 ;
3849 [label="p2 <= 77.0\ngini = 0.46\nsamples = 91\nvalue = [50, 92]\nclass = inactive", fillcolor="#399de574"] ;
3713 -> 3849 ;
3850 [label="(...)", fillcolor="#C0C0C0"] ;
3849 -> 3850 ;
3855 [label="(...)", fillcolor="#C0C0C0"] ;
3849 -> 3855 ;
3872 [label="p1 <= 71.0\ngini = 0.35\nsamples = 112\nvalue = [43, 145]\nclass = inactive", fillcolor="#399de5b3"] ;
3712 -> 3872 ;
3873 [label="mean <= 0.02\ngini = 0.39\nsamples = 23\nvalue = [31, 11]\nclass = active", fillcolor="#e58139a5"] ;
3872 -> 3873 ;
3874 [label="(...)", fillcolor="#C0C0C0"] ;
3873 -> 3874 ;
3883 [label="(...)", fillcolor="#C0C0C0"] ;
3873 -> 3883 ;
3884 [label="p4 <= 245.5\ngini = 0.15\nsamples = 89\nvalue = [12, 134]\nclass = inactive", fillcolor="#399de5e8"] ;
3872 -> 3884 ;
3885 [label="(...)", fillcolor="#C0C0C0"] ;
3884 -> 3885 ;
3890 [label="(...)", fillcolor="#C0C0C0"] ;
3884 -> 3890 ;
3891 [label="idle <= 3.36\ngini = 0.29\nsamples = 3531\nvalue = [4595, 1007]\nclass = active", fillcolor="#e58139c7"] ;
3711 -> 3891 ;
3892 [label="p1 <= 72.0\ngini = 0.24\nsamples = 2480\nvalue = [3412, 558]\nclass = active", fillcolor="#e58139d5"] ;
3891 -> 3892 ;
3893 [label="std <= 5.53\ngini = 0.17\nsamples = 1689\nvalue = [2448, 256]\nclass = active", fillcolor="#e58139e4"] ;
3892 -> 3893 ;
3894 [label="(...)", fillcolor="#C0C0C0"] ;
3893 -> 3894 ;
4071 [label="(...)", fillcolor="#C0C0C0"] ;
3893 -> 4071 ;
4230 [label="idle <= 1.14\ngini = 0.36\nsamples = 791\nvalue = [964, 302]\nclass = active", fillcolor="#e58139af"] ;
3892 -> 4230 ;
4231 [label="(...)", fillcolor="#C0C0C0"] ;
4230 -> 4231 ;
4232 [label="(...)", fillcolor="#C0C0C0"] ;
4230 -> 4232 ;
4529 [label="std <= 12.17\ngini = 0.4\nsamples = 1051\nvalue = [1183, 449]\nclass = active", fillcolor="#e581399e"] ;
3891 -> 4529 ;
4530 [label="p5 <= 61.5\ngini = 0.34\nsamples = 744\nvalue = [919, 249]\nclass = active", fillcolor="#e58139ba"] ;
4529 -> 4530 ;
4531 [label="(...)", fillcolor="#C0C0C0"] ;
4530 -> 4531 ;
4608 [label="(...)", fillcolor="#C0C0C0"] ;
4530 -> 4608 ;
4823 [label="p4 <= 67.0\ngini = 0.49\nsamples = 307\nvalue = [264, 200]\nclass = active", fillcolor="#e581393e"] ;
4529 -> 4823 ;
4824 [label="(...)", fillcolor="#C0C0C0"] ;
4823 -> 4824 ;
4895 [label="(...)", fillcolor="#C0C0C0"] ;
4823 -> 4895 ;
4926 [label="p3 <= 65.0\ngini = 0.3\nsamples = 105657\nvalue = [30103, 137058]\nclass = inactive", fillcolor="#399de5c7"] ;
2 -> 4926 ;
4927 [label="mean <= 64.5\ngini = 0.48\nsamples = 35472\nvalue = [23215, 33027]\nclass = inactive", fillcolor="#399de54c"] ;
4926 -> 4927 ;
4928 [label="std <= 0.0\ngini = 0.43\nsamples = 29442\nvalue = [14831, 31945]\nclass = inactive", fillcolor="#399de589"] ;
4927 -> 4928 ;
4929 [label="p2 <= 26.0\ngini = 0.5\nsamples = 17524\nvalue = [13049, 14727]\nclass = inactive", fillcolor="#399de51d"] ;
4928 -> 4929 ;
4930 [label="pro <= 0.5\ngini = 0.49\nsamples = 16415\nvalue = [11281, 14727]\nclass = inactive", fillcolor="#399de53c"] ;
4929 -> 4930 ;
4931 [label="p4 <= 377.0\ngini = 0.07\nsamples = 9157\nvalue = [561, 13899]\nclass = inactive", fillcolor="#399de5f5"] ;
4930 -> 4931 ;
4932 [label="(...)", fillcolor="#C0C0C0"] ;
4931 -> 4932 ;
5505 [label="(...)", fillcolor="#C0C0C0"] ;
4931 -> 5505 ;
5506 [label="p3 <= 29.5\ngini = 0.13\nsamples = 7258\nvalue = [10720, 828]\nclass = active", fillcolor="#e58139eb"] ;
4930 -> 5506 ;
5507 [label="(...)", fillcolor="#C0C0C0"] ;
5506 -> 5507 ;
6242 [label="(...)", fillcolor="#C0C0C0"] ;
5506 -> 6242 ;
6243 [label="gini = 0.0\nsamples = 1109\nvalue = [1768, 0]\nclass = active", fillcolor="#e58139ff"] ;
4929 -> 6243 ;
6244 [label="p5 <= 61.5\ngini = 0.17\nsamples = 11918\nvalue = [1782, 17218]\nclass = inactive", fillcolor="#399de5e5"] ;
4928 -> 6244 ;
6245 [label="p5 <= 53.5\ngini = 0.14\nsamples = 11672\nvalue = [1406, 17211]\nclass = inactive", fillcolor="#399de5ea"] ;
6244 -> 6245 ;
6246 [label="gini = 0.0\nsamples = 73\nvalue = [114, 0]\nclass = active", fillcolor="#e58139ff"] ;
6245 -> 6246 ;
6247 [label="pro <= 0.5\ngini = 0.13\nsamples = 11599\nvalue = [1292, 17211]\nclass = inactive", fillcolor="#399de5ec"] ;
6245 -> 6247 ;
6248 [label="(...)", fillcolor="#C0C0C0"] ;
6247 -> 6248 ;
6613 [label="(...)", fillcolor="#C0C0C0"] ;
6247 -> 6613 ;
6622 [label="p3 <= 59.5\ngini = 0.04\nsamples = 246\nvalue = [376, 7]\nclass = active", fillcolor="#e58139fa"] ;
6244 -> 6622 ;
6623 [label="mean <= 17.8\ngini = 0.5\nsamples = 8\nvalue = [6, 7]\nclass = inactive", fillcolor="#399de524"] ;
6622 -> 6623 ;
6624 [label="(...)", fillcolor="#C0C0C0"] ;
6623 -> 6624 ;
6627 [label="(...)", fillcolor="#C0C0C0"] ;
6623 -> 6627 ;
6628 [label="gini = 0.0\nsamples = 238\nvalue = [370, 0]\nclass = active", fillcolor="#e58139ff"] ;
6622 -> 6628 ;
6629 [label="pro <= 0.5\ngini = 0.2\nsamples = 6030\nvalue = [8384, 1082]\nclass = active", fillcolor="#e58139de"] ;
4927 -> 6629 ;
6630 [label="gini = 0.0\nsamples = 293\nvalue = [0, 458]\nclass = inactive", fillcolor="#399de5ff"] ;
6629 -> 6630 ;
6631 [label="idle <= 1254.42\ngini = 0.13\nsamples = 5737\nvalue = [8384, 624]\nclass = active", fillcolor="#e58139ec"] ;
6629 -> 6631 ;
6632 [label="p5 <= 63.0\ngini = 0.09\nsamples = 5350\nvalue = [7978, 403]\nclass = active", fillcolor="#e58139f2"] ;
6631 -> 6632 ;
6633 [label="p4 <= 60.5\ngini = 0.08\nsamples = 5315\nvalue = [7978, 345]\nclass = active", fillcolor="#e58139f4"] ;
6632 -> 6633 ;
6634 [label="(...)", fillcolor="#C0C0C0"] ;
6633 -> 6634 ;
6689 [label="(...)", fillcolor="#C0C0C0"] ;
6633 -> 6689 ;
6708 [label="gini = 0.0\nsamples = 35\nvalue = [0, 58]\nclass = inactive", fillcolor="#399de5ff"] ;
6632 -> 6708 ;
6709 [label="p1 <= 29.0\ngini = 0.46\nsamples = 387\nvalue = [406, 221]\nclass = active", fillcolor="#e5813974"] ;
6631 -> 6709 ;
6710 [label="p4 <= 69.5\ngini = 0.31\nsamples = 288\nvalue = [374, 89]\nclass = active", fillcolor="#e58139c2"] ;
6709 -> 6710 ;
6711 [label="(...)", fillcolor="#C0C0C0"] ;
6710 -> 6711 ;
6734 [label="(...)", fillcolor="#C0C0C0"] ;
6710 -> 6734 ;
6735 [label="p5 <= 56.0\ngini = 0.31\nsamples = 99\nvalue = [32, 132]\nclass = inactive", fillcolor="#399de5c1"] ;
6709 -> 6735 ;
6736 [label="(...)", fillcolor="#C0C0C0"] ;
6735 -> 6736 ;
6737 [label="(...)", fillcolor="#C0C0C0"] ;
6735 -> 6737 ;
6742 [label="p1 <= 70.5\ngini = 0.12\nsamples = 70185\nvalue = [6888, 104031]\nclass = inactive", fillcolor="#399de5ee"] ;
4926 -> 6742 ;
6743 [label="pro <= 0.5\ngini = 0.16\nsamples = 34508\nvalue = [4824, 49480]\nclass = inactive", fillcolor="#399de5e6"] ;
6742 -> 6743 ;
6744 [label="p5 <= 63.0\ngini = 0.15\nsamples = 34243\nvalue = [4408, 49475]\nclass = inactive", fillcolor="#399de5e8"] ;
6743 -> 6744 ;
6745 [label="p2 <= 58.5\ngini = 0.02\nsamples = 6486\nvalue = [90, 10073]\nclass = inactive", fillcolor="#399de5fd"] ;
6744 -> 6745 ;
6746 [label="idle <= 21.23\ngini = 0.0\nsamples = 3105\nvalue = [9, 4853]\nclass = inactive", fillcolor="#399de5ff"] ;
6745 -> 6746 ;
6747 [label="(...)", fillcolor="#C0C0C0"] ;
6746 -> 6747 ;
6762 [label="(...)", fillcolor="#C0C0C0"] ;
6746 -> 6762 ;
6769 [label="p3 <= 69.0\ngini = 0.03\nsamples = 3381\nvalue = [81, 5220]\nclass = inactive", fillcolor="#399de5fb"] ;
6745 -> 6769 ;
6770 [label="(...)", fillcolor="#C0C0C0"] ;
6769 -> 6770 ;
6787 [label="(...)", fillcolor="#C0C0C0"] ;
6769 -> 6787 ;
6842 [label="std <= 0.05\ngini = 0.18\nsamples = 27757\nvalue = [4318, 39402]\nclass = inactive", fillcolor="#399de5e3"] ;
6744 -> 6842 ;
6843 [label="p4 <= 666.0\ngini = 0.36\nsamples = 5434\nvalue = [2039, 6539]\nclass = inactive", fillcolor="#399de5af"] ;
6842 -> 6843 ;
6844 [label="(...)", fillcolor="#C0C0C0"] ;
6843 -> 6844 ;
7263 [label="(...)", fillcolor="#C0C0C0"] ;
6843 -> 7263 ;
7290 [label="idle <= 60.87\ngini = 0.12\nsamples = 22323\nvalue = [2279, 32863]\nclass = inactive", fillcolor="#399de5ed"] ;
6842 -> 7290 ;
7291 [label="(...)", fillcolor="#C0C0C0"] ;
7290 -> 7291 ;
7762 [label="(...)", fillcolor="#C0C0C0"] ;
7290 -> 7762 ;
8223 [label="p4 <= 57.0\ngini = 0.02\nsamples = 265\nvalue = [416, 5]\nclass = active", fillcolor="#e58139fc"] ;
6743 -> 8223 ;
8224 [label="p2 <= 63.0\ngini = 0.04\nsamples = 167\nvalue = [255, 5]\nclass = active", fillcolor="#e58139fa"] ;
8223 -> 8224 ;
8225 [label="gini = 0.0\nsamples = 93\nvalue = [147, 0]\nclass = active", fillcolor="#e58139ff"] ;
8224 -> 8225 ;
8226 [label="std <= 0.03\ngini = 0.08\nsamples = 74\nvalue = [108, 5]\nclass = active", fillcolor="#e58139f3"] ;
8224 -> 8226 ;
8227 [label="(...)", fillcolor="#C0C0C0"] ;
8226 -> 8227 ;
8232 [label="(...)", fillcolor="#C0C0C0"] ;
8226 -> 8232 ;
8233 [label="gini = 0.0\nsamples = 98\nvalue = [161, 0]\nclass = active", fillcolor="#e58139ff"] ;
8223 -> 8233 ;
8234 [label="pro <= 0.5\ngini = 0.07\nsamples = 35677\nvalue = [2064, 54551]\nclass = inactive", fillcolor="#399de5f5"] ;
6742 -> 8234 ;
8235 [label="std <= 0.01\ngini = 0.07\nsamples = 35628\nvalue = [1984, 54551]\nclass = inactive", fillcolor="#399de5f6"] ;
8234 -> 8235 ;
8236 [label="mean <= 0.0\ngini = 0.25\nsamples = 1127\nvalue = [256, 1499]\nclass = inactive", fillcolor="#399de5d3"] ;
8235 -> 8236 ;
8237 [label="std <= 0.0\ngini = 0.05\nsamples = 458\nvalue = [19, 694]\nclass = inactive", fillcolor="#399de5f8"] ;
8236 -> 8237 ;
8238 [label="(...)", fillcolor="#C0C0C0"] ;
8237 -> 8238 ;
8239 [label="(...)", fillcolor="#C0C0C0"] ;
8237 -> 8239 ;
8254 [label="p1 <= 76.0\ngini = 0.35\nsamples = 669\nvalue = [237, 805]\nclass = inactive", fillcolor="#399de5b4"] ;
8236 -> 8254 ;
8255 [label="(...)", fillcolor="#C0C0C0"] ;
8254 -> 8255 ;
8264 [label="(...)", fillcolor="#C0C0C0"] ;
8254 -> 8264 ;
8317 [label="p4 <= 95.0\ngini = 0.06\nsamples = 34501\nvalue = [1728, 53052]\nclass = inactive", fillcolor="#399de5f7"] ;
8235 -> 8317 ;
8318 [label="std <= 0.02\ngini = 0.05\nsamples = 30518\nvalue = [1199, 47270]\nclass = inactive", fillcolor="#399de5f9"] ;
8317 -> 8318 ;
8319 [label="(...)", fillcolor="#C0C0C0"] ;
8318 -> 8319 ;
8368 [label="(...)", fillcolor="#C0C0C0"] ;
8318 -> 8368 ;
8933 [label="std <= 0.02\ngini = 0.15\nsamples = 3983\nvalue = [529, 5782]\nclass = inactive", fillcolor="#399de5e8"] ;
8317 -> 8933 ;
8934 [label="(...)", fillcolor="#C0C0C0"] ;
8933 -> 8934 ;
8935 [label="(...)", fillcolor="#C0C0C0"] ;
8933 -> 8935 ;
9202 [label="gini = 0.0\nsamples = 49\nvalue = [80, 0]\nclass = active", fillcolor="#e58139ff"] ;
8234 -> 9202 ;
9203 [label="idle <= 9.75\ngini = 0.19\nsamples = 96339\nvalue = [15845, 136593]\nclass = inactive", fillcolor="#399de5e1"] ;
1 -> 9203 ;
9204 [label="std <= 12.16\ngini = 0.36\nsamples = 10809\nvalue = [12990, 4066]\nclass = active", fillcolor="#e58139af"] ;
9203 -> 9204 ;
9205 [label="p5 <= 54.5\ngini = 0.29\nsamples = 9437\nvalue = [12237, 2662]\nclass = active", fillcolor="#e58139c8"] ;
9204 -> 9205 ;
9206 [label="p2 <= 103.5\ngini = 0.48\nsamples = 1274\nvalue = [1230, 819]\nclass = active", fillcolor="#e5813955"] ;
9205 -> 9206 ;
9207 [label="p3 <= 60.0\ngini = 0.03\nsamples = 182\nvalue = [4, 283]\nclass = inactive", fillcolor="#399de5fb"] ;
9206 -> 9207 ;
9208 [label="gini = 0.0\nsamples = 1\nvalue = [2, 0]\nclass = active", fillcolor="#e58139ff"] ;
9207 -> 9208 ;
9209 [label="p4 <= 78.0\ngini = 0.01\nsamples = 181\nvalue = [2, 283]\nclass = inactive", fillcolor="#399de5fd"] ;
9207 -> 9209 ;
9210 [label="mean <= 4.35\ngini = 0.01\nsamples = 180\nvalue = [1, 283]\nclass = inactive", fillcolor="#399de5fe"] ;
9209 -> 9210 ;
9211 [label="(...)", fillcolor="#C0C0C0"] ;
9210 -> 9211 ;
9212 [label="(...)", fillcolor="#C0C0C0"] ;
9210 -> 9212 ;
9213 [label="gini = 0.0\nsamples = 1\nvalue = [1, 0]\nclass = active", fillcolor="#e58139ff"] ;
9209 -> 9213 ;
9214 [label="idle <= 0.31\ngini = 0.42\nsamples = 1092\nvalue = [1226, 536]\nclass = active", fillcolor="#e5813990"] ;
9206 -> 9214 ;
9215 [label="p3 <= 64.0\ngini = 0.32\nsamples = 718\nvalue = [926, 237]\nclass = active", fillcolor="#e58139be"] ;
9214 -> 9215 ;
9216 [label="p1 <= 95.0\ngini = 0.08\nsamples = 400\nvalue = [620, 28]\nclass = active", fillcolor="#e58139f3"] ;
9215 -> 9216 ;
9217 [label="(...)", fillcolor="#C0C0C0"] ;
9216 -> 9217 ;
9236 [label="(...)", fillcolor="#C0C0C0"] ;
9216 -> 9236 ;
9253 [label="p4 <= 68.0\ngini = 0.48\nsamples = 318\nvalue = [306, 209]\nclass = active", fillcolor="#e5813951"] ;
9215 -> 9253 ;
9254 [label="(...)", fillcolor="#C0C0C0"] ;
9253 -> 9254 ;
9327 [label="(...)", fillcolor="#C0C0C0"] ;
9253 -> 9327 ;
9372 [label="p4 <= 68.0\ngini = 0.5\nsamples = 374\nvalue = [300, 299]\nclass = active", fillcolor="#e5813901"] ;
9214 -> 9372 ;
9373 [label="p2 <= 1510.0\ngini = 0.43\nsamples = 216\nvalue = [106, 236]\nclass = inactive", fillcolor="#399de58c"] ;
9372 -> 9373 ;
9374 [label="(...)", fillcolor="#C0C0C0"] ;
9373 -> 9374 ;
9425 [label="(...)", fillcolor="#C0C0C0"] ;
9373 -> 9425 ;
9432 [label="std <= 0.17\ngini = 0.37\nsamples = 158\nvalue = [194, 63]\nclass = active", fillcolor="#e58139ac"] ;
9372 -> 9432 ;
9433 [label="(...)", fillcolor="#C0C0C0"] ;
9432 -> 9433 ;
9446 [label="(...)", fillcolor="#C0C0C0"] ;
9432 -> 9446 ;
9497 [label="p4 <= 66.5\ngini = 0.25\nsamples = 8163\nvalue = [11007, 1843]\nclass = active", fillcolor="#e58139d4"] ;
9205 -> 9497 ;
9498 [label="std <= 3.01\ngini = 0.38\nsamples = 3584\nvalue = [4189, 1437]\nclass = active", fillcolor="#e58139a8"] ;
9497 -> 9498 ;
9499 [label="p4 <= 61.5\ngini = 0.29\nsamples = 2652\nvalue = [3426, 750]\nclass = active", fillcolor="#e58139c7"] ;
9498 -> 9499 ;
9500 [label="idle <= 2.22\ngini = 0.46\nsamples = 473\nvalue = [465, 258]\nclass = active", fillcolor="#e5813972"] ;
9499 -> 9500 ;
9501 [label="(...)", fillcolor="#C0C0C0"] ;
9500 -> 9501 ;
9658 [label="(...)", fillcolor="#C0C0C0"] ;
9500 -> 9658 ;
9675 [label="p2 <= 262.5\ngini = 0.24\nsamples = 2179\nvalue = [2961, 492]\nclass = active", fillcolor="#e58139d5"] ;
9499 -> 9675 ;
9676 [label="(...)", fillcolor="#C0C0C0"] ;
9675 -> 9676 ;
9803 [label="(...)", fillcolor="#C0C0C0"] ;
9675 -> 9803 ;
10180 [label="p3 <= 67.0\ngini = 0.5\nsamples = 932\nvalue = [763, 687]\nclass = active", fillcolor="#e5813919"] ;
9498 -> 10180 ;
10181 [label="idle <= 5.72\ngini = 0.49\nsamples = 537\nvalue = [378, 464]\nclass = inactive", fillcolor="#399de52f"] ;
10180 -> 10181 ;
10182 [label="(...)", fillcolor="#C0C0C0"] ;
10181 -> 10182 ;
10453 [label="(...)", fillcolor="#C0C0C0"] ;
10181 -> 10453 ;
10458 [label="p1 <= 1512.0\ngini = 0.46\nsamples = 395\nvalue = [385, 223]\nclass = active", fillcolor="#e581396b"] ;
10180 -> 10458 ;
10459 [label="(...)", fillcolor="#C0C0C0"] ;
10458 -> 10459 ;
10612 [label="(...)", fillcolor="#C0C0C0"] ;
10458 -> 10612 ;
10641 [label="mean <= 16.41\ngini = 0.11\nsamples = 4579\nvalue = [6818, 406]\nclass = active", fillcolor="#e58139f0"] ;
9497 -> 10641 ;
10642 [label="p3 <= 1512.0\ngini = 0.1\nsamples = 4559\nvalue = [6815, 376]\nclass = active", fillcolor="#e58139f1"] ;
10641 -> 10642 ;
10643 [label="std <= 4.09\ngini = 0.05\nsamples = 3652\nvalue = [5643, 153]\nclass = active", fillcolor="#e58139f8"] ;
10642 -> 10643 ;
10644 [label="(...)", fillcolor="#C0C0C0"] ;
10643 -> 10644 ;
10843 [label="(...)", fillcolor="#C0C0C0"] ;
10643 -> 10843 ;
10932 [label="mean <= 0.13\ngini = 0.27\nsamples = 907\nvalue = [1172, 223]\nclass = active", fillcolor="#e58139ce"] ;
10642 -> 10932 ;
10933 [label="(...)", fillcolor="#C0C0C0"] ;
10932 -> 10933 ;
11068 [label="(...)", fillcolor="#C0C0C0"] ;
10932 -> 11068 ;
11157 [label="p4 <= 89.5\ngini = 0.17\nsamples = 20\nvalue = [3, 30]\nclass = inactive", fillcolor="#399de5e6"] ;
10641 -> 11157 ;
11158 [label="gini = 0.0\nsamples = 2\nvalue = [3, 0]\nclass = active", fillcolor="#e58139ff"] ;
11157 -> 11158 ;
11159 [label="gini = 0.0\nsamples = 18\nvalue = [0, 30]\nclass = inactive", fillcolor="#399de5ff"] ;
11157 -> 11159 ;
11160 [label="mean <= 9.2\ngini = 0.45\nsamples = 1372\nvalue = [753, 1404]\nclass = inactive", fillcolor="#399de576"] ;
9204 -> 11160 ;
11161 [label="p1 <= 115.0\ngini = 0.24\nsamples = 351\nvalue = [75, 467]\nclass = inactive", fillcolor="#399de5d6"] ;
11160 -> 11161 ;
11162 [label="p4 <= 96.0\ngini = 0.35\nsamples = 178\nvalue = [58, 202]\nclass = inactive", fillcolor="#399de5b6"] ;
11161 -> 11162 ;
11163 [label="std <= 13.3\ngini = 0.28\nsamples = 157\nvalue = [38, 189]\nclass = inactive", fillcolor="#399de5cc"] ;
11162 -> 11163 ;
11164 [label="p1 <= 82.0\ngini = 0.15\nsamples = 111\nvalue = [13, 148]\nclass = inactive", fillcolor="#399de5e9"] ;
11163 -> 11164 ;
11165 [label="(...)", fillcolor="#C0C0C0"] ;
11164 -> 11165 ;
11192 [label="(...)", fillcolor="#C0C0C0"] ;
11164 -> 11192 ;
11193 [label="std <= 15.28\ngini = 0.47\nsamples = 46\nvalue = [25, 41]\nclass = inactive", fillcolor="#399de564"] ;
11163 -> 11193 ;
11194 [label="(...)", fillcolor="#C0C0C0"] ;
11193 -> 11194 ;
11227 [label="(...)", fillcolor="#C0C0C0"] ;
11193 -> 11227 ;
11228 [label="p4 <= 1216.5\ngini = 0.48\nsamples = 21\nvalue = [20, 13]\nclass = active", fillcolor="#e5813959"] ;
11162 -> 11228 ;
11229 [label="std <= 15.2\ngini = 0.36\nsamples = 17\nvalue = [20, 6]\nclass = active", fillcolor="#e58139b3"] ;
11228 -> 11229 ;
11230 [label="(...)", fillcolor="#C0C0C0"] ;
11229 -> 11230 ;
11237 [label="(...)", fillcolor="#C0C0C0"] ;
11229 -> 11237 ;
11238 [label="gini = 0.0\nsamples = 4\nvalue = [0, 7]\nclass = inactive", fillcolor="#399de5ff"] ;
11228 -> 11238 ;
11239 [label="mean <= 7.42\ngini = 0.11\nsamples = 173\nvalue = [17, 265]\nclass = inactive", fillcolor="#399de5ef"] ;
11161 -> 11239 ;
11240 [label="idle <= 0.01\ngini = 0.49\nsamples = 11\nvalue = [11, 9]\nclass = active", fillcolor="#e581392e"] ;
11239 -> 11240 ;
11241 [label="gini = 0.0\nsamples = 4\nvalue = [0, 8]\nclass = inactive", fillcolor="#399de5ff"] ;
11240 -> 11241 ;
11242 [label="idle <= 0.02\ngini = 0.15\nsamples = 7\nvalue = [11, 1]\nclass = active", fillcolor="#e58139e8"] ;
11240 -> 11242 ;
11243 [label="(...)", fillcolor="#C0C0C0"] ;
11242 -> 11243 ;
11244 [label="(...)", fillcolor="#C0C0C0"] ;
11242 -> 11244 ;
11247 [label="mean <= 8.42\ngini = 0.04\nsamples = 162\nvalue = [6, 256]\nclass = inactive", fillcolor="#399de5f9"] ;
11239 -> 11247 ;
11248 [label="idle <= 4.59\ngini = 0.02\nsamples = 139\nvalue = [2, 228]\nclass = inactive", fillcolor="#399de5fd"] ;
11247 -> 11248 ;
11249 [label="(...)", fillcolor="#C0C0C0"] ;
11248 -> 11249 ;
11256 [label="(...)", fillcolor="#C0C0C0"] ;
11248 -> 11256 ;
11259 [label="std <= 14.9\ngini = 0.22\nsamples = 23\nvalue = [4, 28]\nclass = inactive", fillcolor="#399de5db"] ;
11247 -> 11259 ;
11260 [label="(...)", fillcolor="#C0C0C0"] ;
11259 -> 11260 ;
11265 [label="(...)", fillcolor="#C0C0C0"] ;
11259 -> 11265 ;
11266 [label="std <= 26.27\ngini = 0.49\nsamples = 1021\nvalue = [678, 937]\nclass = inactive", fillcolor="#399de546"] ;
11160 -> 11266 ;
11267 [label="mean <= 14.49\ngini = 0.5\nsamples = 457\nvalue = [390, 347]\nclass = active", fillcolor="#e581391c"] ;
11266 -> 11267 ;
11268 [label="p1 <= 1510.0\ngini = 0.48\nsamples = 277\nvalue = [183, 260]\nclass = inactive", fillcolor="#399de54c"] ;
11267 -> 11268 ;
11269 [label="mean <= 9.6\ngini = 0.5\nsamples = 222\nvalue = [158, 193]\nclass = inactive", fillcolor="#399de52e"] ;
11268 -> 11269 ;
11270 [label="(...)", fillcolor="#C0C0C0"] ;
11269 -> 11270 ;
11281 [label="(...)", fillcolor="#C0C0C0"] ;
11269 -> 11281 ;
11394 [label="idle <= 0.11\ngini = 0.4\nsamples = 55\nvalue = [25, 67]\nclass = inactive", fillcolor="#399de5a0"] ;
11268 -> 11394 ;
11395 [label="(...)", fillcolor="#C0C0C0"] ;
11394 -> 11395 ;
11412 [label="(...)", fillcolor="#C0C0C0"] ;
11394 -> 11412 ;
11427 [label="std <= 25.73\ngini = 0.42\nsamples = 180\nvalue = [207, 87]\nclass = active", fillcolor="#e5813994"] ;
11267 -> 11427 ;
11428 [label="p2 <= 534.0\ngini = 0.46\nsamples = 143\nvalue = [148, 86]\nclass = active", fillcolor="#e581396b"] ;
11427 -> 11428 ;
11429 [label="(...)", fillcolor="#C0C0C0"] ;
11428 -> 11429 ;
11458 [label="(...)", fillcolor="#C0C0C0"] ;
11428 -> 11458 ;
11481 [label="mean <= 15.19\ngini = 0.03\nsamples = 37\nvalue = [59, 1]\nclass = active", fillcolor="#e58139fb"] ;
11427 -> 11481 ;
11482 [label="(...)", fillcolor="#C0C0C0"] ;
11481 -> 11482 ;
11483 [label="(...)", fillcolor="#C0C0C0"] ;
11481 -> 11483 ;
11484 [label="p4 <= 67.0\ngini = 0.44\nsamples = 564\nvalue = [288, 590]\nclass = inactive", fillcolor="#399de583"] ;
11266 -> 11484 ;
11485 [label="p1 <= 74.0\ngini = 0.3\nsamples = 352\nvalue = [102, 444]\nclass = inactive", fillcolor="#399de5c4"] ;
11484 -> 11485 ;
11486 [label="idle <= 0.4\ngini = 0.39\nsamples = 234\nvalue = [94, 266]\nclass = inactive", fillcolor="#399de5a5"] ;
11485 -> 11486 ;
11487 [label="(...)", fillcolor="#C0C0C0"] ;
11486 -> 11487 ;
11572 [label="(...)", fillcolor="#C0C0C0"] ;
11486 -> 11572 ;
11605 [label="std <= 27.36\ngini = 0.08\nsamples = 118\nvalue = [8, 178]\nclass = inactive", fillcolor="#399de5f4"] ;
11485 -> 11605 ;
11606 [label="(...)", fillcolor="#C0C0C0"] ;
11605 -> 11606 ;
11607 [label="(...)", fillcolor="#C0C0C0"] ;
11605 -> 11607 ;
11618 [label="mean <= 33.21\ngini = 0.49\nsamples = 212\nvalue = [186, 146]\nclass = active", fillcolor="#e5813937"] ;
11484 -> 11618 ;
11619 [label="p3 <= 400.0\ngini = 0.42\nsamples = 96\nvalue = [44, 104]\nclass = inactive", fillcolor="#399de593"] ;
11618 -> 11619 ;
11620 [label="(...)", fillcolor="#C0C0C0"] ;
11619 -> 11620 ;
11637 [label="(...)", fillcolor="#C0C0C0"] ;
11619 -> 11637 ;
11664 [label="mean <= 74.82\ngini = 0.35\nsamples = 116\nvalue = [142, 42]\nclass = active", fillcolor="#e58139b4"] ;
11618 -> 11664 ;
11665 [label="(...)", fillcolor="#C0C0C0"] ;
11664 -> 11665 ;
11690 [label="(...)", fillcolor="#C0C0C0"] ;
11664 -> 11690 ;
11701 [label="pro <= 0.5\ngini = 0.04\nsamples = 85530\nvalue = [2855, 132527]\nclass = inactive", fillcolor="#399de5fa"] ;
9203 -> 11701 ;
11702 [label="p1 <= 95.0\ngini = 0.04\nsamples = 85481\nvalue = [2770, 132527]\nclass = inactive", fillcolor="#399de5fa"] ;
11701 -> 11702 ;
11703 [label="p5 <= 60.5\ngini = 0.06\nsamples = 40755\nvalue = [2120, 62331]\nclass = inactive", fillcolor="#399de5f6"] ;
11702 -> 11703 ;
11704 [label="idle <= 44.45\ngini = 0.01\nsamples = 12192\nvalue = [109, 19280]\nclass = inactive", fillcolor="#399de5fe"] ;
11703 -> 11704 ;
11705 [label="idle <= 44.4\ngini = 0.1\nsamples = 657\nvalue = [50, 936]\nclass = inactive", fillcolor="#399de5f1"] ;
11704 -> 11705 ;
11706 [label="p4 <= 78.5\ngini = 0.09\nsamples = 656\nvalue = [47, 936]\nclass = inactive", fillcolor="#399de5f2"] ;
11705 -> 11706 ;
11707 [label="(...)", fillcolor="#C0C0C0"] ;
11706 -> 11707 ;
11726 [label="(...)", fillcolor="#C0C0C0"] ;
11706 -> 11726 ;
11745 [label="gini = 0.0\nsamples = 1\nvalue = [3, 0]\nclass = active", fillcolor="#e58139ff"] ;
11705 -> 11745 ;
11746 [label="idle <= 243.77\ngini = 0.01\nsamples = 11535\nvalue = [59, 18344]\nclass = inactive", fillcolor="#399de5fe"] ;
11704 -> 11746 ;
11747 [label="mean <= 0.13\ngini = 0.02\nsamples = 2915\nvalue = [57, 4565]\nclass = inactive", fillcolor="#399de5fc"] ;
11746 -> 11747 ;
11748 [label="(...)", fillcolor="#C0C0C0"] ;
11747 -> 11748 ;
11757 [label="(...)", fillcolor="#C0C0C0"] ;
11747 -> 11757 ;
11782 [label="p4 <= 923.5\ngini = 0.0\nsamples = 8620\nvalue = [2, 13779]\nclass = inactive", fillcolor="#399de5ff"] ;
11746 -> 11782 ;
11783 [label="(...)", fillcolor="#C0C0C0"] ;
11782 -> 11783 ;
11784 [label="(...)", fillcolor="#C0C0C0"] ;
11782 -> 11784 ;
11793 [label="p4 <= 67.0\ngini = 0.09\nsamples = 28563\nvalue = [2011, 43051]\nclass = inactive", fillcolor="#399de5f3"] ;
11703 -> 11793 ;
11794 [label="idle <= 40.62\ngini = 0.03\nsamples = 25933\nvalue = [647, 40218]\nclass = inactive", fillcolor="#399de5fb"] ;
11793 -> 11794 ;
11795 [label="p2 <= 1458.0\ngini = 0.27\nsamples = 1014\nvalue = [254, 1342]\nclass = inactive", fillcolor="#399de5cf"] ;
11794 -> 11795 ;
11796 [label="(...)", fillcolor="#C0C0C0"] ;
11795 -> 11796 ;
12035 [label="(...)", fillcolor="#C0C0C0"] ;
11795 -> 12035 ;
12090 [label="std <= 0.01\ngini = 0.02\nsamples = 24919\nvalue = [393, 38876]\nclass = inactive", fillcolor="#399de5fc"] ;
11794 -> 12090 ;
12091 [label="(...)", fillcolor="#C0C0C0"] ;
12090 -> 12091 ;
12126 [label="(...)", fillcolor="#C0C0C0"] ;
12090 -> 12126 ;
12333 [label="p2 <= 1423.5\ngini = 0.44\nsamples = 2630\nvalue = [1364, 2833]\nclass = inactive", fillcolor="#399de584"] ;
11793 -> 12333 ;
12334 [label="idle <= 265.97\ngini = 0.48\nsamples = 2100\nvalue = [1316, 1995]\nclass = inactive", fillcolor="#399de557"] ;
12333 -> 12334 ;
12335 [label="(...)", fillcolor="#C0C0C0"] ;
12334 -> 12335 ;
12536 [label="(...)", fillcolor="#C0C0C0"] ;
12334 -> 12536 ;
12561 [label="idle <= 30.08\ngini = 0.1\nsamples = 530\nvalue = [48, 838]\nclass = inactive", fillcolor="#399de5f0"] ;
12333 -> 12561 ;
12562 [label="(...)", fillcolor="#C0C0C0"] ;
12561 -> 12562 ;
12595 [label="(...)", fillcolor="#C0C0C0"] ;
12561 -> 12595 ;
12622 [label="idle <= 41.56\ngini = 0.02\nsamples = 44726\nvalue = [650, 70196]\nclass = inactive", fillcolor="#399de5fd"] ;
11702 -> 12622 ;
12623 [label="p4 <= 68.5\ngini = 0.24\nsamples = 1925\nvalue = [423, 2633]\nclass = inactive", fillcolor="#399de5d6"] ;
12622 -> 12623 ;
12624 [label="p5 <= 56.5\ngini = 0.1\nsamples = 1132\nvalue = [92, 1715]\nclass = inactive", fillcolor="#399de5f1"] ;
12623 -> 12624 ;
12625 [label="gini = 0.0\nsamples = 388\nvalue = [0, 629]\nclass = inactive", fillcolor="#399de5ff"] ;
12624 -> 12625 ;
12626 [label="idle <= 21.51\ngini = 0.14\nsamples = 744\nvalue = [92, 1086]\nclass = inactive", fillcolor="#399de5e9"] ;
12624 -> 12626 ;
12627 [label="(...)", fillcolor="#C0C0C0"] ;
12626 -> 12627 ;
12710 [label="(...)", fillcolor="#C0C0C0"] ;
12626 -> 12710 ;
12777 [label="std <= 6.75\ngini = 0.39\nsamples = 793\nvalue = [331, 918]\nclass = inactive", fillcolor="#399de5a3"] ;
12623 -> 12777 ;
12778 [label="std <= 0.31\ngini = 0.47\nsamples = 450\nvalue = [264, 432]\nclass = inactive", fillcolor="#399de563"] ;
12777 -> 12778 ;
12779 [label="(...)", fillcolor="#C0C0C0"] ;
12778 -> 12779 ;
12854 [label="(...)", fillcolor="#C0C0C0"] ;
12778 -> 12854 ;
12959 [label="p3 <= 91.5\ngini = 0.21\nsamples = 343\nvalue = [67, 486]\nclass = inactive", fillcolor="#399de5dc"] ;
12777 -> 12959 ;
12960 [label="(...)", fillcolor="#C0C0C0"] ;
12959 -> 12960 ;
12981 [label="(...)", fillcolor="#C0C0C0"] ;
12959 -> 12981 ;
13006 [label="p5 <= 57.0\ngini = 0.01\nsamples = 42801\nvalue = [227, 67563]\nclass = inactive", fillcolor="#399de5fe"] ;
12622 -> 13006 ;
13007 [label="idle <= 50.23\ngini = 0.0\nsamples = 13032\nvalue = [13, 20597]\nclass = inactive", fillcolor="#399de5ff"] ;
13006 -> 13007 ;
13008 [label="idle <= 50.2\ngini = 0.04\nsamples = 269\nvalue = [9, 408]\nclass = inactive", fillcolor="#399de5f9"] ;
13007 -> 13008 ;
13009 [label="(...)", fillcolor="#C0C0C0"] ;
13008 -> 13009 ;
13024 [label="(...)", fillcolor="#C0C0C0"] ;
13008 -> 13024 ;
13025 [label="p1 <= 163.5\ngini = 0.0\nsamples = 12763\nvalue = [4, 20189]\nclass = inactive", fillcolor="#399de5ff"] ;
13007 -> 13025 ;
13026 [label="(...)", fillcolor="#C0C0C0"] ;
13025 -> 13026 ;
13031 [label="(...)", fillcolor="#C0C0C0"] ;
13025 -> 13031 ;
13032 [label="mean <= 0.0\ngini = 0.01\nsamples = 29769\nvalue = [214, 46966]\nclass = inactive", fillcolor="#399de5fe"] ;
13006 -> 13032 ;
13033 [label="std <= 0.0\ngini = 0.27\nsamples = 121\nvalue = [29, 155]\nclass = inactive", fillcolor="#399de5cf"] ;
13032 -> 13033 ;
13034 [label="(...)", fillcolor="#C0C0C0"] ;
13033 -> 13034 ;
13045 [label="(...)", fillcolor="#C0C0C0"] ;
13033 -> 13045 ;
13046 [label="mean <= 0.4\ngini = 0.01\nsamples = 29648\nvalue = [185, 46811]\nclass = inactive", fillcolor="#399de5fe"] ;
13032 -> 13046 ;
13047 [label="(...)", fillcolor="#C0C0C0"] ;
13046 -> 13047 ;
13108 [label="(...)", fillcolor="#C0C0C0"] ;
13046 -> 13108 ;
13215 [label="gini = 0.0\nsamples = 49\nvalue = [85, 0]\nclass = active", fillcolor="#e58139ff"] ;
11701 -> 13215 ;
13216 [label="mean <= 4.05\ngini = 0.09\nsamples = 112575\nvalue = [170053, 8103]\nclass = active", fillcolor="#e58139f3"] ;
0 -> 13216 [labeldistance=2.5, labelangle=-45, headlabel="False"] ;
13217 [label="p4 <= 66.5\ngini = 0.06\nsamples = 88811\nvalue = [136183, 4336]\nclass = active", fillcolor="#e58139f7"] ;
13216 -> 13217 ;
13218 [label="mean <= 0.05\ngini = 0.12\nsamples = 24727\nvalue = [36614, 2582]\nclass = active", fillcolor="#e58139ed"] ;
13217 -> 13218 ;
13219 [label="p1 <= 92.0\ngini = 0.08\nsamples = 16600\nvalue = [25121, 1167]\nclass = active", fillcolor="#e58139f3"] ;
13218 -> 13219 ;
13220 [label="p5 <= 69.5\ngini = 0.07\nsamples = 16160\nvalue = [24602, 981]\nclass = active", fillcolor="#e58139f5"] ;
13219 -> 13220 ;
13221 [label="pro <= 0.5\ngini = 0.29\nsamples = 71\nvalue = [21, 97]\nclass = inactive", fillcolor="#399de5c8"] ;
13220 -> 13221 ;
13222 [label="gini = 0.0\nsamples = 17\nvalue = [21, 0]\nclass = active", fillcolor="#e58139ff"] ;
13221 -> 13222 ;
13223 [label="gini = 0.0\nsamples = 54\nvalue = [0, 97]\nclass = inactive", fillcolor="#399de5ff"] ;
13221 -> 13223 ;
13224 [label="p5 <= 77.5\ngini = 0.07\nsamples = 16089\nvalue = [24581, 884]\nclass = active", fillcolor="#e58139f6"] ;
13220 -> 13224 ;
13225 [label="mean <= 0.0\ngini = 0.17\nsamples = 2481\nvalue = [3578, 382]\nclass = active", fillcolor="#e58139e4"] ;
13224 -> 13225 ;
13226 [label="pro <= 0.5\ngini = 0.18\nsamples = 2451\nvalue = [3531, 382]\nclass = active", fillcolor="#e58139e3"] ;
13225 -> 13226 ;
13227 [label="(...)", fillcolor="#C0C0C0"] ;
13226 -> 13227 ;
13288 [label="(...)", fillcolor="#C0C0C0"] ;
13226 -> 13288 ;
13637 [label="gini = 0.0\nsamples = 30\nvalue = [47, 0]\nclass = active", fillcolor="#e58139ff"] ;
13225 -> 13637 ;
13638 [label="pro <= 0.5\ngini = 0.05\nsamples = 13608\nvalue = [21003, 502]\nclass = active", fillcolor="#e58139f9"] ;
13224 -> 13638 ;
13639 [label="mean <= 0.01\ngini = 0.03\nsamples = 5350\nvalue = [8359, 112]\nclass = active", fillcolor="#e58139fc"] ;
13638 -> 13639 ;
13640 [label="(...)", fillcolor="#C0C0C0"] ;
13639 -> 13640 ;
13755 [label="(...)", fillcolor="#C0C0C0"] ;
13639 -> 13755 ;
13756 [label="p5 <= 471.5\ngini = 0.06\nsamples = 8258\nvalue = [12644, 390]\nclass = active", fillcolor="#e58139f7"] ;
13638 -> 13756 ;
13757 [label="(...)", fillcolor="#C0C0C0"] ;
13756 -> 13757 ;
14088 [label="(...)", fillcolor="#C0C0C0"] ;
13756 -> 14088 ;
14295 [label="p1 <= 108.0\ngini = 0.39\nsamples = 440\nvalue = [519, 186]\nclass = active", fillcolor="#e58139a4"] ;
13219 -> 14295 ;
14296 [label="p5 <= 91.0\ngini = 0.25\nsamples = 132\nvalue = [32, 186]\nclass = inactive", fillcolor="#399de5d3"] ;
14295 -> 14296 ;
14297 [label="gini = 0.0\nsamples = 115\nvalue = [0, 186]\nclass = inactive", fillcolor="#399de5ff"] ;
14296 -> 14297 ;
14298 [label="gini = 0.0\nsamples = 17\nvalue = [32, 0]\nclass = active", fillcolor="#e58139ff"] ;
14296 -> 14298 ;
14299 [label="gini = 0.0\nsamples = 308\nvalue = [487, 0]\nclass = active", fillcolor="#e58139ff"] ;
14295 -> 14299 ;
14300 [label="p4 <= 60.5\ngini = 0.2\nsamples = 8127\nvalue = [11493, 1415]\nclass = active", fillcolor="#e58139e0"] ;
13218 -> 14300 ;
14301 [label="p3 <= 59.5\ngini = 0.45\nsamples = 1421\nvalue = [1462, 763]\nclass = active", fillcolor="#e581397a"] ;
14300 -> 14301 ;
14302 [label="p1 <= 26.5\ngini = 0.05\nsamples = 266\nvalue = [403, 10]\nclass = active", fillcolor="#e58139f9"] ;
14301 -> 14302 ;
14303 [label="p2 <= 28.5\ngini = 0.19\nsamples = 59\nvalue = [83, 10]\nclass = active", fillcolor="#e58139e0"] ;
14302 -> 14303 ;
14304 [label="gini = 0.0\nsamples = 50\nvalue = [81, 0]\nclass = active", fillcolor="#e58139ff"] ;
14303 -> 14304 ;
14305 [label="std <= 0.42\ngini = 0.28\nsamples = 9\nvalue = [2, 10]\nclass = inactive", fillcolor="#399de5cc"] ;
14303 -> 14305 ;
14306 [label="(...)", fillcolor="#C0C0C0"] ;
14305 -> 14306 ;
14307 [label="(...)", fillcolor="#C0C0C0"] ;
14305 -> 14307 ;
14308 [label="gini = 0.0\nsamples = 207\nvalue = [320, 0]\nclass = active", fillcolor="#e58139ff"] ;
14302 -> 14308 ;
14309 [label="p1 <= 26.5\ngini = 0.49\nsamples = 1155\nvalue = [1059, 753]\nclass = active", fillcolor="#e581394a"] ;
14301 -> 14309 ;
14310 [label="idle <= 7.83\ngini = 0.48\nsamples = 408\nvalue = [246, 381]\nclass = inactive", fillcolor="#399de55a"] ;
14309 -> 14310 ;
14311 [label="std <= 1.35\ngini = 0.09\nsamples = 154\nvalue = [232, 11]\nclass = active", fillcolor="#e58139f3"] ;
14310 -> 14311 ;
14312 [label="(...)", fillcolor="#C0C0C0"] ;
14311 -> 14312 ;
14321 [label="(...)", fillcolor="#C0C0C0"] ;
14311 -> 14321 ;
14324 [label="std <= 0.09\ngini = 0.07\nsamples = 254\nvalue = [14, 370]\nclass = inactive", fillcolor="#399de5f5"] ;
14310 -> 14324 ;
14325 [label="(...)", fillcolor="#C0C0C0"] ;
14324 -> 14325 ;
14326 [label="(...)", fillcolor="#C0C0C0"] ;
14324 -> 14326 ;
14329 [label="mean <= 0.1\ngini = 0.43\nsamples = 747\nvalue = [813, 372]\nclass = active", fillcolor="#e581398a"] ;
14309 -> 14329 ;
14330 [label="mean <= 0.09\ngini = 0.46\nsamples = 122\nvalue = [69, 120]\nclass = inactive", fillcolor="#399de56c"] ;
14329 -> 14330 ;
14331 [label="(...)", fillcolor="#C0C0C0"] ;
14330 -> 14331 ;
14332 [label="(...)", fillcolor="#C0C0C0"] ;
14330 -> 14332 ;
14337 [label="idle <= 25.92\ngini = 0.38\nsamples = 625\nvalue = [744, 252]\nclass = active", fillcolor="#e58139a9"] ;
14329 -> 14337 ;
14338 [label="(...)", fillcolor="#C0C0C0"] ;
14337 -> 14338 ;
14375 [label="(...)", fillcolor="#C0C0C0"] ;
14337 -> 14375 ;
14376 [label="mean <= 1.65\ngini = 0.11\nsamples = 6706\nvalue = [10031, 652]\nclass = active", fillcolor="#e58139ee"] ;
14300 -> 14376 ;
14377 [label="std <= 0.14\ngini = 0.07\nsamples = 5451\nvalue = [8321, 316]\nclass = active", fillcolor="#e58139f5"] ;
14376 -> 14377 ;
14378 [label="p2 <= 1512.0\ngini = 0.01\nsamples = 1674\nvalue = [2627, 9]\nclass = active", fillcolor="#e58139fe"] ;
14377 -> 14378 ;
14379 [label="idle <= 1.24\ngini = 0.0\nsamples = 1635\nvalue = [2575, 1]\nclass = active", fillcolor="#e58139ff"] ;
14378 -> 14379 ;
14380 [label="(...)", fillcolor="#C0C0C0"] ;
14379 -> 14380 ;
14381 [label="(...)", fillcolor="#C0C0C0"] ;
14379 -> 14381 ;
14386 [label="idle <= 59.17\ngini = 0.23\nsamples = 39\nvalue = [52, 8]\nclass = active", fillcolor="#e58139d8"] ;
14378 -> 14386 ;
14387 [label="(...)", fillcolor="#C0C0C0"] ;
14386 -> 14387 ;
14388 [label="(...)", fillcolor="#C0C0C0"] ;
14386 -> 14388 ;
14389 [label="p1 <= 26.5\ngini = 0.1\nsamples = 3777\nvalue = [5694, 307]\nclass = active", fillcolor="#e58139f1"] ;
14377 -> 14389 ;
14390 [label="p3 <= 76.0\ngini = 0.23\nsamples = 259\nvalue = [360, 56]\nclass = active", fillcolor="#e58139d7"] ;
14389 -> 14390 ;
14391 [label="(...)", fillcolor="#C0C0C0"] ;
14390 -> 14391 ;
14392 [label="(...)", fillcolor="#C0C0C0"] ;
14390 -> 14392 ;
14401 [label="idle <= 41.74\ngini = 0.09\nsamples = 3518\nvalue = [5334, 251]\nclass = active", fillcolor="#e58139f3"] ;
14389 -> 14401 ;
14402 [label="(...)", fillcolor="#C0C0C0"] ;
14401 -> 14402 ;
14459 [label="(...)", fillcolor="#C0C0C0"] ;
14401 -> 14459 ;
14482 [label="idle <= 57.91\ngini = 0.27\nsamples = 1255\nvalue = [1710, 336]\nclass = active", fillcolor="#e58139cd"] ;
14376 -> 14482 ;
14483 [label="idle <= 8.42\ngini = 0.03\nsamples = 990\nvalue = [1605, 29]\nclass = active", fillcolor="#e58139fa"] ;
14482 -> 14483 ;
14484 [label="mean <= 1.72\ngini = 0.01\nsamples = 898\nvalue = [1477, 10]\nclass = active", fillcolor="#e58139fd"] ;
14483 -> 14484 ;
14485 [label="(...)", fillcolor="#C0C0C0"] ;
14484 -> 14485 ;
14490 [label="(...)", fillcolor="#C0C0C0"] ;
14484 -> 14490 ;
14525 [label="p5 <= 473.5\ngini = 0.23\nsamples = 92\nvalue = [128, 19]\nclass = active", fillcolor="#e58139d9"] ;
14483 -> 14525 ;
14526 [label="(...)", fillcolor="#C0C0C0"] ;
14525 -> 14526 ;
14549 [label="(...)", fillcolor="#C0C0C0"] ;
14525 -> 14549 ;
14552 [label="p3 <= 270.0\ngini = 0.38\nsamples = 265\nvalue = [105, 307]\nclass = inactive", fillcolor="#399de5a8"] ;
14482 -> 14552 ;
14553 [label="std <= 3.83\ngini = 0.07\nsamples = 201\nvalue = [11, 307]\nclass = inactive", fillcolor="#399de5f6"] ;
14552 -> 14553 ;
14554 [label="(...)", fillcolor="#C0C0C0"] ;
14553 -> 14554 ;
14561 [label="(...)", fillcolor="#C0C0C0"] ;
14553 -> 14561 ;
14562 [label="gini = 0.0\nsamples = 64\nvalue = [94, 0]\nclass = active", fillcolor="#e58139ff"] ;
14552 -> 14562 ;
14563 [label="idle <= 4.82\ngini = 0.03\nsamples = 64084\nvalue = [99569, 1754]\nclass = active", fillcolor="#e58139fb"] ;
13217 -> 14563 ;
14564 [label="std <= 0.01\ngini = 0.0\nsamples = 44035\nvalue = [69446, 62]\nclass = active", fillcolor="#e58139ff"] ;
14563 -> 14564 ;
14565 [label="idle <= 1.45\ngini = 0.01\nsamples = 7307\nvalue = [11520, 30]\nclass = active", fillcolor="#e58139fe"] ;
14564 -> 14565 ;
14566 [label="p5 <= 1513.0\ngini = 0.0\nsamples = 7016\nvalue = [11063, 17]\nclass = active", fillcolor="#e58139ff"] ;
14565 -> 14566 ;
14567 [label="std <= 0.01\ngini = 0.0\nsamples = 5942\nvalue = [9376, 5]\nclass = active", fillcolor="#e58139ff"] ;
14566 -> 14567 ;
14568 [label="std <= 0.01\ngini = 0.0\nsamples = 5941\nvalue = [9376, 3]\nclass = active", fillcolor="#e58139ff"] ;
14567 -> 14568 ;
14569 [label="(...)", fillcolor="#C0C0C0"] ;
14568 -> 14569 ;
14588 [label="(...)", fillcolor="#C0C0C0"] ;
14568 -> 14588 ;
14593 [label="gini = 0.0\nsamples = 1\nvalue = [0, 2]\nclass = inactive", fillcolor="#399de5ff"] ;
14567 -> 14593 ;
14594 [label="p3 <= 1508.0\ngini = 0.01\nsamples = 1074\nvalue = [1687, 12]\nclass = active", fillcolor="#e58139fd"] ;
14566 -> 14594 ;
14595 [label="gini = 0.0\nsamples = 63\nvalue = [94, 0]\nclass = active", fillcolor="#e58139ff"] ;
14594 -> 14595 ;
14596 [label="std <= 0.01\ngini = 0.01\nsamples = 1011\nvalue = [1593, 12]\nclass = active", fillcolor="#e58139fd"] ;
14594 -> 14596 ;
14597 [label="(...)", fillcolor="#C0C0C0"] ;
14596 -> 14597 ;
14604 [label="(...)", fillcolor="#C0C0C0"] ;
14596 -> 14604 ;
14607 [label="idle <= 1.45\ngini = 0.05\nsamples = 291\nvalue = [457, 13]\nclass = active", fillcolor="#e58139f8"] ;
14565 -> 14607 ;
14608 [label="gini = 0.0\nsamples = 1\nvalue = [0, 4]\nclass = inactive", fillcolor="#399de5ff"] ;
14607 -> 14608 ;
14609 [label="idle <= 1.61\ngini = 0.04\nsamples = 290\nvalue = [457, 9]\nclass = active", fillcolor="#e58139fa"] ;
14607 -> 14609 ;
14610 [label="idle <= 1.6\ngini = 0.16\nsamples = 48\nvalue = [75, 7]\nclass = active", fillcolor="#e58139e7"] ;
14609 -> 14610 ;
14611 [label="(...)", fillcolor="#C0C0C0"] ;
14610 -> 14611 ;
14618 [label="(...)", fillcolor="#C0C0C0"] ;
14610 -> 14618 ;
14619 [label="p2 <= 1510.0\ngini = 0.01\nsamples = 242\nvalue = [382, 2]\nclass = active", fillcolor="#e58139fe"] ;
14609 -> 14619 ;
14620 [label="(...)", fillcolor="#C0C0C0"] ;
14619 -> 14620 ;
14621 [label="(...)", fillcolor="#C0C0C0"] ;
14619 -> 14621 ;
14628 [label="p3 <= 70.5\ngini = 0.0\nsamples = 36728\nvalue = [57926, 32]\nclass = active", fillcolor="#e58139ff"] ;
14564 -> 14628 ;
14629 [label="idle <= 0.82\ngini = 0.0\nsamples = 4439\nvalue = [6951, 16]\nclass = active", fillcolor="#e58139fe"] ;
14628 -> 14629 ;
14630 [label="p4 <= 1504.0\ngini = 0.0\nsamples = 3769\nvalue = [5944, 7]\nclass = active", fillcolor="#e58139ff"] ;
14629 -> 14630 ;
14631 [label="idle <= 0.0\ngini = 0.0\nsamples = 2675\nvalue = [4229, 1]\nclass = active", fillcolor="#e58139ff"] ;
14630 -> 14631 ;
14632 [label="(...)", fillcolor="#C0C0C0"] ;
14631 -> 14632 ;
14637 [label="(...)", fillcolor="#C0C0C0"] ;
14631 -> 14637 ;
14638 [label="std <= 2.23\ngini = 0.01\nsamples = 1094\nvalue = [1715, 6]\nclass = active", fillcolor="#e58139fe"] ;
14630 -> 14638 ;
14639 [label="(...)", fillcolor="#C0C0C0"] ;
14638 -> 14639 ;
14660 [label="(...)", fillcolor="#C0C0C0"] ;
14638 -> 14660 ;
14669 [label="p3 <= 69.5\ngini = 0.02\nsamples = 670\nvalue = [1007, 9]\nclass = active", fillcolor="#e58139fd"] ;
14629 -> 14669 ;
14670 [label="std <= 0.34\ngini = 0.01\nsamples = 666\nvalue = [998, 7]\nclass = active", fillcolor="#e58139fd"] ;
14669 -> 14670 ;
14671 [label="(...)", fillcolor="#C0C0C0"] ;
14670 -> 14671 ;
14672 [label="(...)", fillcolor="#C0C0C0"] ;
14670 -> 14672 ;
14695 [label="std <= 0.32\ngini = 0.3\nsamples = 4\nvalue = [9, 2]\nclass = active", fillcolor="#e58139c6"] ;
14669 -> 14695 ;
14696 [label="(...)", fillcolor="#C0C0C0"] ;
14695 -> 14696 ;
14697 [label="(...)", fillcolor="#C0C0C0"] ;
14695 -> 14697 ;
14698 [label="p1 <= 54.5\ngini = 0.0\nsamples = 32289\nvalue = [50975, 16]\nclass = active", fillcolor="#e58139ff"] ;
14628 -> 14698 ;
14699 [label="p2 <= 1360.0\ngini = 0.01\nsamples = 635\nvalue = [1022, 5]\nclass = active", fillcolor="#e58139fe"] ;
14698 -> 14699 ;
14700 [label="idle <= 2.85\ngini = 0.0\nsamples = 549\nvalue = [893, 2]\nclass = active", fillcolor="#e58139fe"] ;
14699 -> 14700 ;
14701 [label="(...)", fillcolor="#C0C0C0"] ;
14700 -> 14701 ;
14708 [label="(...)", fillcolor="#C0C0C0"] ;
14700 -> 14708 ;
14711 [label="p2 <= 1431.0\ngini = 0.04\nsamples = 86\nvalue = [129, 3]\nclass = active", fillcolor="#e58139f9"] ;
14699 -> 14711 ;
14712 [label="(...)", fillcolor="#C0C0C0"] ;
14711 -> 14712 ;
14715 [label="(...)", fillcolor="#C0C0C0"] ;
14711 -> 14715 ;
14716 [label="std <= 2.04\ngini = 0.0\nsamples = 31654\nvalue = [49953, 11]\nclass = active", fillcolor="#e58139ff"] ;
14698 -> 14716 ;
14717 [label="idle <= 1.09\ngini = 0.0\nsamples = 30151\nvalue = [47592, 6]\nclass = active", fillcolor="#e58139ff"] ;
14716 -> 14717 ;
14718 [label="(...)", fillcolor="#C0C0C0"] ;
14717 -> 14718 ;
14737 [label="(...)", fillcolor="#C0C0C0"] ;
14717 -> 14737 ;
14746 [label="mean <= 1.61\ngini = 0.0\nsamples = 1503\nvalue = [2361, 5]\nclass = active", fillcolor="#e58139fe"] ;
14716 -> 14746 ;
14747 [label="(...)", fillcolor="#C0C0C0"] ;
14746 -> 14747 ;
14760 [label="(...)", fillcolor="#C0C0C0"] ;
14746 -> 14760 ;
14767 [label="pro <= 0.5\ngini = 0.1\nsamples = 20049\nvalue = [30123, 1692]\nclass = active", fillcolor="#e58139f1"] ;
14563 -> 14767 ;
14768 [label="p4 <= 183.0\ngini = 0.35\nsamples = 4576\nvalue = [5670, 1631]\nclass = active", fillcolor="#e58139b6"] ;
14767 -> 14768 ;
14769 [label="idle <= 273.23\ngini = 0.5\nsamples = 627\nvalue = [537, 441]\nclass = active", fillcolor="#e581392e"] ;
14768 -> 14769 ;
14770 [label="mean <= 0.3\ngini = 0.32\nsamples = 403\nvalue = [498, 122]\nclass = active", fillcolor="#e58139c1"] ;
14769 -> 14770 ;
14771 [label="p3 <= 115.5\ngini = 0.12\nsamples = 222\nvalue = [315, 22]\nclass = active", fillcolor="#e58139ed"] ;
14770 -> 14771 ;
14772 [label="(...)", fillcolor="#C0C0C0"] ;
14771 -> 14772 ;
14785 [label="(...)", fillcolor="#C0C0C0"] ;
14771 -> 14785 ;
14786 [label="idle <= 101.12\ngini = 0.46\nsamples = 181\nvalue = [183, 100]\nclass = active", fillcolor="#e5813974"] ;
14770 -> 14786 ;
14787 [label="(...)", fillcolor="#C0C0C0"] ;
14786 -> 14787 ;
14814 [label="(...)", fillcolor="#C0C0C0"] ;
14786 -> 14814 ;
14825 [label="std <= 0.07\ngini = 0.19\nsamples = 224\nvalue = [39, 319]\nclass = inactive", fillcolor="#399de5e0"] ;
14769 -> 14825 ;
14826 [label="p3 <= 41.0\ngini = 0.42\nsamples = 86\nvalue = [39, 90]\nclass = inactive", fillcolor="#399de591"] ;
14825 -> 14826 ;
14827 [label="(...)", fillcolor="#C0C0C0"] ;
14826 -> 14827 ;
14832 [label="(...)", fillcolor="#C0C0C0"] ;
14826 -> 14832 ;
14833 [label="gini = 0.0\nsamples = 138\nvalue = [0, 229]\nclass = inactive", fillcolor="#399de5ff"] ;
14825 -> 14833 ;
14834 [label="p5 <= 1513.5\ngini = 0.31\nsamples = 3949\nvalue = [5133, 1190]\nclass = active", fillcolor="#e58139c4"] ;
14768 -> 14834 ;
14835 [label="mean <= 0.2\ngini = 0.23\nsamples = 3697\nvalue = [5116, 804]\nclass = active", fillcolor="#e58139d7"] ;
14834 -> 14835 ;
14836 [label="idle <= 226.53\ngini = 0.15\nsamples = 2665\nvalue = [3950, 348]\nclass = active", fillcolor="#e58139e9"] ;
14835 -> 14836 ;
14837 [label="(...)", fillcolor="#C0C0C0"] ;
14836 -> 14837 ;
14948 [label="(...)", fillcolor="#C0C0C0"] ;
14836 -> 14948 ;
15001 [label="mean <= 0.2\ngini = 0.4\nsamples = 1032\nvalue = [1166, 456]\nclass = active", fillcolor="#e581399b"] ;
14835 -> 15001 ;
15002 [label="(...)", fillcolor="#C0C0C0"] ;
15001 -> 15002 ;
15005 [label="(...)", fillcolor="#C0C0C0"] ;
15001 -> 15005 ;
15056 [label="p2 <= 296.5\ngini = 0.08\nsamples = 252\nvalue = [17, 386]\nclass = inactive", fillcolor="#399de5f4"] ;
14834 -> 15056 ;
15057 [label="gini = 0.0\nsamples = 3\nvalue = [4, 0]\nclass = active", fillcolor="#e58139ff"] ;
15056 -> 15057 ;
15058 [label="std <= 0.16\ngini = 0.06\nsamples = 249\nvalue = [13, 386]\nclass = inactive", fillcolor="#399de5f6"] ;
15056 -> 15058 ;
15059 [label="(...)", fillcolor="#C0C0C0"] ;
15058 -> 15059 ;
15060 [label="(...)", fillcolor="#C0C0C0"] ;
15058 -> 15060 ;
15065 [label="mean <= 3.03\ngini = 0.0\nsamples = 15473\nvalue = [24453, 61]\nclass = active", fillcolor="#e58139fe"] ;
14767 -> 15065 ;
15066 [label="p4 <= 76.5\ngini = 0.0\nsamples = 15108\nvalue = [23895, 40]\nclass = active", fillcolor="#e58139ff"] ;
15065 -> 15066 ;
15067 [label="p5 <= 75.5\ngini = 0.03\nsamples = 1717\nvalue = [2695, 40]\nclass = active", fillcolor="#e58139fb"] ;
15066 -> 15067 ;
15068 [label="gini = 0.0\nsamples = 1517\nvalue = [2403, 0]\nclass = active", fillcolor="#e58139ff"] ;
15067 -> 15068 ;
15069 [label="idle <= 241.91\ngini = 0.21\nsamples = 200\nvalue = [292, 40]\nclass = active", fillcolor="#e58139dc"] ;
15067 -> 15069 ;
15070 [label="(...)", fillcolor="#C0C0C0"] ;
15069 -> 15070 ;
15101 [label="(...)", fillcolor="#C0C0C0"] ;
15069 -> 15101 ;
15166 [label="gini = 0.0\nsamples = 13391\nvalue = [21200, 0]\nclass = active", fillcolor="#e58139ff"] ;
15066 -> 15166 ;
15167 [label="std <= 1.01\ngini = 0.07\nsamples = 365\nvalue = [558, 21]\nclass = active", fillcolor="#e58139f5"] ;
15065 -> 15167 ;
15168 [label="gini = 0.0\nsamples = 263\nvalue = [423, 0]\nclass = active", fillcolor="#e58139ff"] ;
15167 -> 15168 ;
15169 [label="p4 <= 173.0\ngini = 0.23\nsamples = 102\nvalue = [135, 21]\nclass = active", fillcolor="#e58139d7"] ;
15167 -> 15169 ;
15170 [label="gini = 0.0\nsamples = 87\nvalue = [135, 0]\nclass = active", fillcolor="#e58139ff"] ;
15169 -> 15170 ;
15171 [label="gini = 0.0\nsamples = 15\nvalue = [0, 21]\nclass = inactive", fillcolor="#399de5ff"] ;
15169 -> 15171 ;
15172 [label="p4 <= 71.5\ngini = 0.18\nsamples = 23764\nvalue = [33870, 3767]\nclass = active", fillcolor="#e58139e3"] ;
13216 -> 15172 ;
15173 [label="mean <= 11.52\ngini = 0.37\nsamples = 4222\nvalue = [5095, 1617]\nclass = active", fillcolor="#e58139ae"] ;
15172 -> 15173 ;
15174 [label="p3 <= 66.5\ngini = 0.24\nsamples = 1848\nvalue = [2482, 401]\nclass = active", fillcolor="#e58139d6"] ;
15173 -> 15174 ;
15175 [label="p5 <= 70.5\ngini = 0.34\nsamples = 1122\nvalue = [1365, 384]\nclass = active", fillcolor="#e58139b7"] ;
15174 -> 15175 ;
15176 [label="gini = 0.0\nsamples = 219\nvalue = [350, 0]\nclass = active", fillcolor="#e58139ff"] ;
15175 -> 15176 ;
15177 [label="mean <= 4.06\ngini = 0.4\nsamples = 903\nvalue = [1015, 384]\nclass = active", fillcolor="#e581399f"] ;
15175 -> 15177 ;
15178 [label="gini = 0.0\nsamples = 28\nvalue = [0, 44]\nclass = inactive", fillcolor="#399de5ff"] ;
15177 -> 15178 ;
15179 [label="p2 <= 68.0\ngini = 0.38\nsamples = 875\nvalue = [1015, 340]\nclass = active", fillcolor="#e58139aa"] ;
15177 -> 15179 ;
15180 [label="p5 <= 84.5\ngini = 0.45\nsamples = 571\nvalue = [579, 309]\nclass = active", fillcolor="#e5813977"] ;
15179 -> 15180 ;
15181 [label="(...)", fillcolor="#C0C0C0"] ;
15180 -> 15181 ;
15192 [label="(...)", fillcolor="#C0C0C0"] ;
15180 -> 15192 ;
15225 [label="p2 <= 923.5\ngini = 0.12\nsamples = 304\nvalue = [436, 31]\nclass = active", fillcolor="#e58139ed"] ;
15179 -> 15225 ;
15226 [label="(...)", fillcolor="#C0C0C0"] ;
15225 -> 15226 ;
15245 [label="(...)", fillcolor="#C0C0C0"] ;
15225 -> 15245 ;
15256 [label="mean <= 4.55\ngini = 0.03\nsamples = 726\nvalue = [1117, 17]\nclass = active", fillcolor="#e58139fb"] ;
15174 -> 15256 ;
15257 [label="p2 <= 66.5\ngini = 0.26\nsamples = 60\nvalue = [79, 14]\nclass = active", fillcolor="#e58139d2"] ;
15256 -> 15257 ;
15258 [label="p3 <= 1486.5\ngini = 0.48\nsamples = 24\nvalue = [22, 14]\nclass = active", fillcolor="#e581395d"] ;
15257 -> 15258 ;
15259 [label="idle <= 12.87\ngini = 0.34\nsamples = 19\nvalue = [22, 6]\nclass = active", fillcolor="#e58139b9"] ;
15258 -> 15259 ;
15260 [label="(...)", fillcolor="#C0C0C0"] ;
15259 -> 15260 ;
15261 [label="(...)", fillcolor="#C0C0C0"] ;
15259 -> 15261 ;
15264 [label="gini = 0.0\nsamples = 5\nvalue = [0, 8]\nclass = inactive", fillcolor="#399de5ff"] ;
15258 -> 15264 ;
15265 [label="gini = 0.0\nsamples = 36\nvalue = [57, 0]\nclass = active", fillcolor="#e58139ff"] ;
15257 -> 15265 ;
15266 [label="idle <= 22.03\ngini = 0.01\nsamples = 666\nvalue = [1038, 3]\nclass = active", fillcolor="#e58139fe"] ;
15256 -> 15266 ;
15267 [label="gini = 0.0\nsamples = 584\nvalue = [912, 0]\nclass = active", fillcolor="#e58139ff"] ;
15266 -> 15267 ;
15268 [label="p2 <= 76.0\ngini = 0.05\nsamples = 82\nvalue = [126, 3]\nclass = active", fillcolor="#e58139f9"] ;
15266 -> 15268 ;
15269 [label="gini = 0.0\nsamples = 65\nvalue = [103, 0]\nclass = active", fillcolor="#e58139ff"] ;
15268 -> 15269 ;
15270 [label="p5 <= 1164.5\ngini = 0.2\nsamples = 17\nvalue = [23, 3]\nclass = active", fillcolor="#e58139de"] ;
15268 -> 15270 ;
15271 [label="(...)", fillcolor="#C0C0C0"] ;
15270 -> 15271 ;
15272 [label="(...)", fillcolor="#C0C0C0"] ;
15270 -> 15272 ;
15275 [label="std <= 24.75\ngini = 0.43\nsamples = 2374\nvalue = [2613, 1216]\nclass = active", fillcolor="#e5813988"] ;
15173 -> 15275 ;
15276 [label="p5 <= 83.5\ngini = 0.49\nsamples = 1443\nvalue = [1347, 977]\nclass = active", fillcolor="#e5813946"] ;
15275 -> 15276 ;
15277 [label="p1 <= 77.0\ngini = 0.33\nsamples = 659\nvalue = [840, 219]\nclass = active", fillcolor="#e58139bd"] ;
15276 -> 15277 ;
15278 [label="mean <= 12.05\ngini = 0.12\nsamples = 515\nvalue = [766, 53]\nclass = active", fillcolor="#e58139ed"] ;
15277 -> 15278 ;
15279 [label="mean <= 11.95\ngini = 0.48\nsamples = 25\nvalue = [18, 27]\nclass = inactive", fillcolor="#399de555"] ;
15278 -> 15279 ;
15280 [label="(...)", fillcolor="#C0C0C0"] ;
15279 -> 15280 ;
15281 [label="(...)", fillcolor="#C0C0C0"] ;
15279 -> 15281 ;
15282 [label="p3 <= 68.0\ngini = 0.06\nsamples = 490\nvalue = [748, 26]\nclass = active", fillcolor="#e58139f6"] ;
15278 -> 15282 ;
15283 [label="(...)", fillcolor="#C0C0C0"] ;
15282 -> 15283 ;
15302 [label="(...)", fillcolor="#C0C0C0"] ;
15282 -> 15302 ;
15303 [label="idle <= 65.5\ngini = 0.43\nsamples = 144\nvalue = [74, 166]\nclass = inactive", fillcolor="#399de58d"] ;
15277 -> 15303 ;
15304 [label="p4 <= 69.5\ngini = 0.24\nsamples = 49\nvalue = [74, 12]\nclass = active", fillcolor="#e58139d6"] ;
15303 -> 15304 ;
15305 [label="(...)", fillcolor="#C0C0C0"] ;
15304 -> 15305 ;
15308 [label="(...)", fillcolor="#C0C0C0"] ;
15304 -> 15308 ;
15315 [label="gini = 0.0\nsamples = 95\nvalue = [0, 154]\nclass = inactive", fillcolor="#399de5ff"] ;
15303 -> 15315 ;
15316 [label="std <= 2.7\ngini = 0.48\nsamples = 784\nvalue = [507, 758]\nclass = inactive", fillcolor="#399de554"] ;
15276 -> 15316 ;
15317 [label="gini = 0.0\nsamples = 58\nvalue = [94, 0]\nclass = active", fillcolor="#e58139ff"] ;
15316 -> 15317 ;
15318 [label="mean <= 12.73\ngini = 0.46\nsamples = 726\nvalue = [413, 758]\nclass = inactive", fillcolor="#399de574"] ;
15316 -> 15318 ;
15319 [label="p2 <= 68.0\ngini = 0.46\nsamples = 81\nvalue = [92, 52]\nclass = active", fillcolor="#e581396f"] ;
15318 -> 15319 ;
15320 [label="(...)", fillcolor="#C0C0C0"] ;
15319 -> 15320 ;
15327 [label="(...)", fillcolor="#C0C0C0"] ;
15319 -> 15327 ;
15328 [label="std <= 5.82\ngini = 0.43\nsamples = 645\nvalue = [321, 706]\nclass = inactive", fillcolor="#399de58b"] ;
15318 -> 15328 ;
15329 [label="(...)", fillcolor="#C0C0C0"] ;
15328 -> 15329 ;
15348 [label="(...)", fillcolor="#C0C0C0"] ;
15328 -> 15348 ;
15417 [label="p2 <= 70.5\ngini = 0.27\nsamples = 931\nvalue = [1266, 239]\nclass = active", fillcolor="#e58139cf"] ;
15275 -> 15417 ;
15418 [label="p5 <= 1458.5\ngini = 0.14\nsamples = 566\nvalue = [863, 71]\nclass = active", fillcolor="#e58139ea"] ;
15417 -> 15418 ;
15419 [label="p3 <= 91.5\ngini = 0.11\nsamples = 549\nvalue = [857, 52]\nclass = active", fillcolor="#e58139f0"] ;
15418 -> 15419 ;
15420 [label="gini = 0.0\nsamples = 444\nvalue = [740, 0]\nclass = active", fillcolor="#e58139ff"] ;
15419 -> 15420 ;
15421 [label="mean <= 134.97\ngini = 0.43\nsamples = 105\nvalue = [117, 52]\nclass = active", fillcolor="#e581398e"] ;
15419 -> 15421 ;
15422 [label="(...)", fillcolor="#C0C0C0"] ;
15421 -> 15422 ;
15433 [label="(...)", fillcolor="#C0C0C0"] ;
15421 -> 15433 ;
15434 [label="p2 <= 63.0\ngini = 0.36\nsamples = 17\nvalue = [6, 19]\nclass = inactive", fillcolor="#399de5ae"] ;
15418 -> 15434 ;
15435 [label="gini = 0.0\nsamples = 14\nvalue = [0, 19]\nclass = inactive", fillcolor="#399de5ff"] ;
15434 -> 15435 ;
15436 [label="gini = 0.0\nsamples = 3\nvalue = [6, 0]\nclass = active", fillcolor="#e58139ff"] ;
15434 -> 15436 ;
15437 [label="p3 <= 71.5\ngini = 0.42\nsamples = 365\nvalue = [403, 168]\nclass = active", fillcolor="#e5813995"] ;
15417 -> 15437 ;
15438 [label="p5 <= 68.5\ngini = 0.49\nsamples = 247\nvalue = [226, 168]\nclass = active", fillcolor="#e5813941"] ;
15437 -> 15438 ;
15439 [label="p1 <= 67.5\ngini = 0.22\nsamples = 36\nvalue = [8, 54]\nclass = inactive", fillcolor="#399de5d9"] ;
15438 -> 15439 ;
15440 [label="(...)", fillcolor="#C0C0C0"] ;
15439 -> 15440 ;
15443 [label="(...)", fillcolor="#C0C0C0"] ;
15439 -> 15443 ;
15444 [label="std <= 506.88\ngini = 0.45\nsamples = 211\nvalue = [218, 114]\nclass = active", fillcolor="#e581397a"] ;
15438 -> 15444 ;
15445 [label="(...)", fillcolor="#C0C0C0"] ;
15444 -> 15445 ;
15446 [label="(...)", fillcolor="#C0C0C0"] ;
15444 -> 15446 ;
15451 [label="gini = 0.0\nsamples = 118\nvalue = [177, 0]\nclass = active", fillcolor="#e58139ff"] ;
15437 -> 15451 ;
15452 [label="idle <= 764.93\ngini = 0.13\nsamples = 19542\nvalue = [28775, 2150]\nclass = active", fillcolor="#e58139ec"] ;
15172 -> 15452 ;
15453 [label="mean <= 58.74\ngini = 0.1\nsamples = 17156\nvalue = [25727, 1457]\nclass = active", fillcolor="#e58139f1"] ;
15452 -> 15453 ;
15454 [label="p5 <= 1410.0\ngini = 0.18\nsamples = 5590\nvalue = [8014, 871]\nclass = active", fillcolor="#e58139e3"] ;
15453 -> 15454 ;
15455 [label="idle <= 135.94\ngini = 0.14\nsamples = 5110\nvalue = [7544, 594]\nclass = active", fillcolor="#e58139eb"] ;
15454 -> 15455 ;
15456 [label="p2 <= 66.5\ngini = 0.07\nsamples = 3483\nvalue = [5384, 198]\nclass = active", fillcolor="#e58139f6"] ;
15455 -> 15456 ;
15457 [label="p5 <= 79.5\ngini = 0.14\nsamples = 1136\nvalue = [1640, 136]\nclass = active", fillcolor="#e58139ea"] ;
15456 -> 15457 ;
15458 [label="(...)", fillcolor="#C0C0C0"] ;
15457 -> 15458 ;
15521 [label="(...)", fillcolor="#C0C0C0"] ;
15457 -> 15521 ;
15572 [label="mean <= 4.06\ngini = 0.03\nsamples = 2347\nvalue = [3744, 62]\nclass = active", fillcolor="#e58139fb"] ;
15456 -> 15572 ;
15573 [label="(...)", fillcolor="#C0C0C0"] ;
15572 -> 15573 ;
15576 [label="(...)", fillcolor="#C0C0C0"] ;
15572 -> 15576 ;
15641 [label="std <= 10.21\ngini = 0.26\nsamples = 1627\nvalue = [2160, 396]\nclass = active", fillcolor="#e58139d0"] ;
15455 -> 15641 ;
15642 [label="pro <= 0.5\ngini = 0.43\nsamples = 745\nvalue = [809, 360]\nclass = active", fillcolor="#e581398e"] ;
15641 -> 15642 ;
15643 [label="(...)", fillcolor="#C0C0C0"] ;
15642 -> 15643 ;
15652 [label="(...)", fillcolor="#C0C0C0"] ;
15642 -> 15652 ;
15687 [label="p2 <= 69.0\ngini = 0.05\nsamples = 882\nvalue = [1351, 36]\nclass = active", fillcolor="#e58139f8"] ;
15641 -> 15687 ;
15688 [label="(...)", fillcolor="#C0C0C0"] ;
15687 -> 15688 ;
15695 [label="(...)", fillcolor="#C0C0C0"] ;
15687 -> 15695 ;
15700 [label="mean <= 32.06\ngini = 0.47\nsamples = 480\nvalue = [470, 277]\nclass = active", fillcolor="#e5813969"] ;
15454 -> 15700 ;
15701 [label="p3 <= 198.0\ngini = 0.32\nsamples = 338\nvalue = [417, 103]\nclass = active", fillcolor="#e58139c0"] ;
15700 -> 15701 ;
15702 [label="p2 <= 76.5\ngini = 0.46\nsamples = 171\nvalue = [168, 91]\nclass = active", fillcolor="#e5813975"] ;
15701 -> 15702 ;
15703 [label="(...)", fillcolor="#C0C0C0"] ;
15702 -> 15703 ;
15714 [label="(...)", fillcolor="#C0C0C0"] ;
15702 -> 15714 ;
15729 [label="std <= 25.11\ngini = 0.09\nsamples = 167\nvalue = [249, 12]\nclass = active", fillcolor="#e58139f3"] ;
15701 -> 15729 ;
15730 [label="(...)", fillcolor="#C0C0C0"] ;
15729 -> 15730 ;
15731 [label="(...)", fillcolor="#C0C0C0"] ;
15729 -> 15731 ;
15734 [label="p4 <= 1510.0\ngini = 0.36\nsamples = 142\nvalue = [53, 174]\nclass = inactive", fillcolor="#399de5b1"] ;
15700 -> 15734 ;
15735 [label="idle <= 63.16\ngini = 0.24\nsamples = 126\nvalue = [28, 174]\nclass = inactive", fillcolor="#399de5d6"] ;
15734 -> 15735 ;
15736 [label="(...)", fillcolor="#C0C0C0"] ;
15735 -> 15736 ;
15743 [label="(...)", fillcolor="#C0C0C0"] ;
15735 -> 15743 ;
15754 [label="gini = 0.0\nsamples = 16\nvalue = [25, 0]\nclass = active", fillcolor="#e58139ff"] ;
15734 -> 15754 ;
15755 [label="mean <= 321.79\ngini = 0.06\nsamples = 11566\nvalue = [17713, 586]\nclass = active", fillcolor="#e58139f7"] ;
15453 -> 15755 ;
15756 [label="p1 <= 1410.0\ngini = 0.03\nsamples = 7171\nvalue = [11119, 191]\nclass = active", fillcolor="#e58139fb"] ;
15755 -> 15756 ;
15757 [label="std <= 189.71\ngini = 0.03\nsamples = 7101\nvalue = [11033, 169]\nclass = active", fillcolor="#e58139fb"] ;
15756 -> 15757 ;
15758 [label="p4 <= 98.5\ngini = 0.06\nsamples = 3151\nvalue = [4833, 149]\nclass = active", fillcolor="#e58139f7"] ;
15757 -> 15758 ;
15759 [label="(...)", fillcolor="#C0C0C0"] ;
15758 -> 15759 ;
15760 [label="(...)", fillcolor="#C0C0C0"] ;
15758 -> 15760 ;
15823 [label="p2 <= 72.5\ngini = 0.01\nsamples = 3950\nvalue = [6200, 20]\nclass = active", fillcolor="#e58139fe"] ;
15757 -> 15823 ;
15824 [label="(...)", fillcolor="#C0C0C0"] ;
15823 -> 15824 ;
15833 [label="(...)", fillcolor="#C0C0C0"] ;
15823 -> 15833 ;
15834 [label="std <= 0.0\ngini = 0.32\nsamples = 70\nvalue = [86, 22]\nclass = active", fillcolor="#e58139be"] ;
15756 -> 15834 ;
15835 [label="gini = 0.0\nsamples = 13\nvalue = [0, 22]\nclass = inactive", fillcolor="#399de5ff"] ;
15834 -> 15835 ;
15836 [label="gini = 0.0\nsamples = 57\nvalue = [86, 0]\nclass = active", fillcolor="#e58139ff"] ;
15834 -> 15836 ;
15837 [label="p2 <= 162.5\ngini = 0.11\nsamples = 4395\nvalue = [6594, 395]\nclass = active", fillcolor="#e58139f0"] ;
15755 -> 15837 ;
15838 [label="p5 <= 77.5\ngini = 0.13\nsamples = 3544\nvalue = [5257, 395]\nclass = active", fillcolor="#e58139ec"] ;
15837 -> 15838 ;
15839 [label="p1 <= 72.5\ngini = 0.32\nsamples = 558\nvalue = [723, 179]\nclass = active", fillcolor="#e58139c0"] ;
15838 -> 15839 ;
15840 [label="(...)", fillcolor="#C0C0C0"] ;
15839 -> 15840 ;
15863 [label="(...)", fillcolor="#C0C0C0"] ;
15839 -> 15863 ;
15876 [label="p3 <= 168.5\ngini = 0.09\nsamples = 2986\nvalue = [4534, 216]\nclass = active", fillcolor="#e58139f3"] ;
15838 -> 15876 ;
15877 [label="(...)", fillcolor="#C0C0C0"] ;
15876 -> 15877 ;
15906 [label="(...)", fillcolor="#C0C0C0"] ;
15876 -> 15906 ;
15923 [label="gini = 0.0\nsamples = 851\nvalue = [1337, 0]\nclass = active", fillcolor="#e58139ff"] ;
15837 -> 15923 ;
15924 [label="mean <= 19.31\ngini = 0.3\nsamples = 2386\nvalue = [3048, 693]\nclass = active", fillcolor="#e58139c5"] ;
15452 -> 15924 ;
15925 [label="p1 <= 89.0\ngini = 0.46\nsamples = 338\nvalue = [204, 351]\nclass = inactive", fillcolor="#399de56b"] ;
15924 -> 15925 ;
15926 [label="p1 <= 29.5\ngini = 0.4\nsamples = 293\nvalue = [134, 351]\nclass = inactive", fillcolor="#399de59e"] ;
15925 -> 15926 ;
15927 [label="p5 <= 75.5\ngini = 0.47\nsamples = 134\nvalue = [134, 79]\nclass = active", fillcolor="#e5813969"] ;
15926 -> 15927 ;
15928 [label="gini = 0.0\nsamples = 64\nvalue = [102, 0]\nclass = active", fillcolor="#e58139ff"] ;
15927 -> 15928 ;
15929 [label="idle <= 963.82\ngini = 0.41\nsamples = 70\nvalue = [32, 79]\nclass = inactive", fillcolor="#399de598"] ;
15927 -> 15929 ;
15930 [label="(...)", fillcolor="#C0C0C0"] ;
15929 -> 15930 ;
15939 [label="(...)", fillcolor="#C0C0C0"] ;
15929 -> 15939 ;
15944 [label="gini = 0.0\nsamples = 159\nvalue = [0, 272]\nclass = inactive", fillcolor="#399de5ff"] ;
15926 -> 15944 ;
15945 [label="gini = 0.0\nsamples = 45\nvalue = [70, 0]\nclass = active", fillcolor="#e58139ff"] ;
15925 -> 15945 ;
15946 [label="p4 <= 1309.0\ngini = 0.19\nsamples = 2048\nvalue = [2844, 342]\nclass = active", fillcolor="#e58139e0"] ;
15924 -> 15946 ;
15947 [label="p4 <= 169.5\ngini = 0.16\nsamples = 2009\nvalue = [2844, 282]\nclass = active", fillcolor="#e58139e6"] ;
15946 -> 15947 ;
15948 [label="mean <= 321.79\ngini = 0.06\nsamples = 1230\nvalue = [1845, 60]\nclass = active", fillcolor="#e58139f7"] ;
15947 -> 15948 ;
15949 [label="gini = 0.0\nsamples = 772\nvalue = [1195, 0]\nclass = active", fillcolor="#e58139ff"] ;
15948 -> 15949 ;
15950 [label="p5 <= 77.5\ngini = 0.15\nsamples = 458\nvalue = [650, 60]\nclass = active", fillcolor="#e58139e7"] ;
15948 -> 15950 ;
15951 [label="(...)", fillcolor="#C0C0C0"] ;
15950 -> 15951 ;
15966 [label="(...)", fillcolor="#C0C0C0"] ;
15950 -> 15966 ;
15987 [label="p5 <= 169.5\ngini = 0.3\nsamples = 779\nvalue = [999, 222]\nclass = active", fillcolor="#e58139c6"] ;
15947 -> 15987 ;
15988 [label="p5 <= 167.0\ngini = 0.21\nsamples = 59\nvalue = [11, 82]\nclass = inactive", fillcolor="#399de5dd"] ;
15987 -> 15988 ;
15989 [label="(...)", fillcolor="#C0C0C0"] ;
15988 -> 15989 ;
15990 [label="(...)", fillcolor="#C0C0C0"] ;
15988 -> 15990 ;
15991 [label="p4 <= 171.5\ngini = 0.22\nsamples = 720\nvalue = [988, 140]\nclass = active", fillcolor="#e58139db"] ;
15987 -> 15991 ;
15992 [label="(...)", fillcolor="#C0C0C0"] ;
15991 -> 15992 ;
15995 [label="(...)", fillcolor="#C0C0C0"] ;
15991 -> 15995 ;
16002 [label="gini = 0.0\nsamples = 39\nvalue = [0, 60]\nclass = inactive", fillcolor="#399de5ff"] ;
15946 -> 16002 ;
}